{"learner":{"attributes":{"scikit_learn":"{\"_estimator_type\": \"regressor\"}"},"feature_names":["total_amount_delivered_tm","order_sequence","order_month","order_quarter","order_day_of_week","is_weekend","days_since_last_order","product_encoded","rolling_avg_quantity_3","rolling_std_quantity_3","total_amount_delivered_tm_mean","total_amount_delivered_tm_std","total_amount_delivered_tm_count","days_since_last_order_mean","days_since_last_order_std","client_lifetime_days","order_frequency_per_month"],"feature_types":["float","int","int","int","int","int","float","int","float","float","float","float","int","float","float","int","float"],"gradient_booster":{"model":{"cats":{"enc":[],"feature_segments":[],"sorted_idx":[]},"gbtree_model_param":{"num_parallel_tree":"1","num_trees":"100"},"iteration_indptr":[0,1,2,3,4,5,6,7,8,9,10,11,12,13,14,15,16,17,18,19,20,21,22,23,24,25,26,27,28,29,30,31,32,33,34,35,36,37,38,39,40,41,42,43,44,45,46,47,48,49,50,51,52,53,54,55,56,57,58,59,60,61,62,63,64,65,66,67,68,69,70,71,72,73,74,75,76,77,78,79,80,81,82,83,84,85,86,87,88,89,90,91,92,93,94,95,96,97,98,99,100],"tree_info":[0,0,0,0,0,0,0,0,0,0,0,0,0,0,0,0,0,0,0,0,0,0,0,0,0,0,0,0,0,0,0,0,0,0,0,0,0,0,0,0,0,0,0,0,0,0,0,0,0,0,0,0,0,0,0,0,0,0,0,0,0,0,0,0,0,0,0,0,0,0,0,0,0,0,0,0,0,0,0,0,0,0,0,0,0,0,0,0,0,0,0,0,0,0,0,0,0,0,0,0],"trees":[{"base_weights":[7.501752E-1,5.319672E1,-9.730213E0,8.040756E1,3.574538E1,8.809142E0,-1.6163866E1,7.5340015E-1,4.844483E0,4.7595793E-1,2.210123E0,2.1296696E-1,1.1388189E0,-5.693566E-1,-9.29954E-1],"categories":[],"categories_nodes":[],"categories_segments":[],"categories_sizes":[],"default_left":[0,0,0,0,0,0,0,0,0,0,0,0,0,0,0],"id":0,"left_children":[1,3,5,7,9,11,13,-1,-1,-1,-1,-1,-1,-1,-1],"loss_changes":[9.967635E5,1.14666375E5,1.8176894E5,1.03862125E5,4.0594812E4,2.4194678E4,1.0979844E4,0E0,0E0,0E0,0E0,0E0,0E0,0E0,0E0],"parents":[2147483647,0,0,1,1,2,2,3,3,4,4,5,5,6,6],"right_children":[2,4,6,8,10,12,14,-1,-1,-1,-1,-1,-1,-1,-1],"split_conditions":[1.7E1,7E0,5.5E1,1.73E2,4.83E2,4.1E1,8.6E1,7.5340015E-1,4.844483E0,4.7595793E-1,2.210123E0,2.1296696E-1,1.1388189E0,-5.693566E-1,-9.29954E-1],"split_indices":[12,12,12,15,15,6,12,0,0,0,0,0,0,0,0],"split_type":[0,0,0,0,0,0,0,0,0,0,0,0,0,0,0],"sum_hessian":[1.794E3,2.92E2,1.502E3,1E2,1.92E2,3.86E2,1.116E3,2.4E1,7.6E1,5.2E1,1.4E2,3.01E2,8.5E1,3.96E2,7.2E2],"tree_param":{"num_deleted":"0","num_feature":"17","num_nodes":"15","size_leaf_vector":"1"}},{"base_weights":[2.451461E-1,-9.35896E0,5.884712E1,-1.5196433E1,8.1242075E0,3.297031E1,8.270727E1,-8.633725E-1,-5.024291E-1,1.1649456E0,2.720554E-1,1.7479714E0,5.4777455E-1,4.2431827E0,9.543767E-1],"categories":[],"categories_nodes":[],"categories_segments":[],"categories_sizes":[],"default_left":[0,0,0,0,0,0,0,0,0,0,0,0,0,0,0],"id":1,"left_children":[1,3,5,7,9,11,13,-1,-1,-1,-1,-1,-1,-1,-1],"loss_changes":[1.01126656E6,1.5881144E5,1.2893844E5,1.0642375E4,1.4733086E4,2.2125938E3,9.49125E2,0E0,0E0,0E0,0E0,0E0,0E0,0E0,0E0],"parents":[2147483647,0,0,1,1,2,2,3,3,4,4,5,5,6,6],"right_children":[2,4,6,8,10,12,14,-1,-1,-1,-1,-1,-1,-1,-1],"split_conditions":[4.9157894E1,2.0625E1,7.9E1,1.1648149E1,3E0,8.434868E1,9.58E2,-8.633725E-1,-5.024291E-1,1.1649456E0,2.720554E-1,1.7479714E0,5.4777455E-1,4.2431827E0,9.543767E-1],"split_indices":[13,13,13,13,1,14,15,0,0,0,0,0,0,0,0],"split_type":[0,0,0,0,0,0,0,0,0,0,0,0,0,0,0],"sum_hessian":[1.777E3,1.534E3,2.43E2,1.151E3,3.83E2,1.28E2,1.15E2,8.04E2,3.47E2,4.6E1,3.37E2,1.12E2,1.6E1,1.08E2,7E0],"tree_param":{"num_deleted":"0","num_feature":"17","num_nodes":"15","size_leaf_vector":"1"}},{"base_weights":[1.7300858E-1,5.456953E1,-9.118006E0,8.6989914E1,3.2409397E1,7.612982E0,-1.4827598E1,4.587174E0,5.1866263E-1,1.7755269E0,4.4809246E-1,6.552903E-1,8.687731E-2,-7.5783527E-1,7.7300704E-1],"categories":[],"categories_nodes":[],"categories_segments":[],"categories_sizes":[],"default_left":[0,0,0,0,0,0,0,0,0,0,0,0,0,0,0],"id":2,"left_children":[1,3,5,7,9,11,13,-1,-1,-1,-1,-1,-1,-1,-1],"loss_changes":[8.868971E5,1.5572662E5,1.4432403E5,2.6173938E4,9.033125E3,1.2293951E4,1.3517281E4,0E0,0E0,0E0,0E0,0E0,0E0,0E0,0E0],"parents":[2147483647,0,0,1,1,2,2,3,3,4,4,5,5,6,6],"right_children":[2,4,6,8,10,12,14,-1,-1,-1,-1,-1,-1,-1,-1],"split_conditions":[6.8728524E-1,3.8257173E-1,1.7277486E0,2.1708179E2,8.281153E1,9.89011E-1,4.6E1,4.587174E0,5.1866263E-1,1.7755269E0,4.4809246E-1,6.552903E-1,8.687731E-2,-7.5783527E-1,7.7300704E-1],"split_indices":[16,16,16,14,14,16,6,0,0,0,0,0,0,0,0],"split_type":[0,0,0,0,0,0,0,0,0,0,0,0,0,0,0],"sum_hessian":[1.735E3,2.46E2,1.489E3,8.8E1,1.58E2,3.78E2,1.111E3,8.1E1,7E0,1.35E2,2.3E1,1.89E2,1.89E2,1.104E3,7E0],"tree_param":{"num_deleted":"0","num_feature":"17","num_nodes":"15","size_leaf_vector":"1"}},{"base_weights":[2.8415963E-1,-9.6522045E0,4.674706E1,-1.4442605E1,4.356953E0,2.9515532E1,4.182451E0,-8.805664E-1,-6.071879E-1,-8.84917E-2,3.895062E-1,1.5610005E0,2.3475707E-1],"categories":[],"categories_nodes":[],"categories_segments":[],"categories_sizes":[],"default_left":[0,0,0,0,0,0,0,0,0,0,0,0,0],"id":3,"left_children":[1,3,5,7,9,11,-1,-1,-1,-1,-1,-1,-1],"loss_changes":[8.5168106E5,1.02635766E5,1.8196944E5,6.1288438E3,8.446483E3,8.560297E3,0E0,0E0,0E0,0E0,0E0,0E0,0E0],"parents":[2147483647,0,0,1,1,2,2,3,3,4,4,5,5],"right_children":[2,4,6,8,10,12,-1,-1,-1,-1,-1,-1,-1],"split_conditions":[4.305E1,1.7648148E1,9.3333336E1,6.5540543E0,2.7363636E1,1.2E1,4.182451E0,-8.805664E-1,-6.071879E-1,-8.84917E-2,3.895062E-1,1.5610005E0,2.3475707E-1],"split_indices":[13,13,13,13,13,2,0,0,0,0,0,0,0],"split_type":[0,0,0,0,0,0,0,0,0,0,0,0,0],"sum_hessian":[1.825E3,1.51E3,3.15E2,1.125E3,3.85E2,2.27E2,8.8E1,4.45E2,6.8E2,1.4E2,2.45E2,2.1E2,1.7E1],"tree_param":{"num_deleted":"0","num_feature":"17","num_nodes":"13","size_leaf_vector":"1"}},{"base_weights":[-6.955607E-1,-9.358764E0,4.3139713E1,-1.3528926E1,3.0056021E0,3.0750847E1,6.995986E1,-4.6409425E-1,-7.7477676E-1,-5.1399905E-2,4.7236452E-1,7.795482E-1,1.6768557E0,4.051521E0,9.044095E-1],"categories":[],"categories_nodes":[],"categories_segments":[],"categories_sizes":[],"default_left":[0,0,0,0,0,0,0,0,0,0,0,0,0,0,0],"id":4,"left_children":[1,3,5,7,9,11,13,-1,-1,-1,-1,-1,-1,-1,-1],"loss_changes":[6.8341675E5,7.785197E4,7.717031E4,7.9577656E3,1.0152697E4,4.1056562E3,3.472747E4,0E0,0E0,0E0,0E0,0E0,0E0,0E0,0E0],"parents":[2147483647,0,0,1,1,2,2,3,3,4,4,5,5,6,6],"right_children":[2,4,6,8,10,12,14,-1,-1,-1,-1,-1,-1,-1,-1],"split_conditions":[4.3166668E1,1.7648148E1,9.3333336E1,8.6E1,3.263158E1,4.9157894E1,1.057497E2,-4.6409425E-1,-7.7477676E-1,-5.1399905E-2,4.7236452E-1,7.795482E-1,1.6768557E0,4.051521E0,9.044095E-1],"split_indices":[13,13,13,12,13,13,14,0,0,0,0,0,0,0,0],"split_type":[0,0,0,0,0,0,0,0,0,0,0,0,0,0,0],"sum_hessian":[1.779E3,1.492E3,2.87E2,1.115E3,3.77E2,2.11E2,7.6E1,3.71E2,7.44E2,2.37E2,1.4E2,4.3E1,1.68E2,5.8E1,1.8E1],"tree_param":{"num_deleted":"0","num_feature":"17","num_nodes":"15","size_leaf_vector":"1"}},{"base_weights":[4.0622714E-1,4.7039352E1,-7.497756E0,6.451781E1,3.3476753E1,6.681235E0,-1.2362227E1,1.3553689E0,3.7933767E0,8.560282E-1,2.3056595E0,1.3058053E-1,8.255127E-1,-3.8961348E-1,-7.3886836E-1],"categories":[],"categories_nodes":[],"categories_segments":[],"categories_sizes":[],"default_left":[0,0,0,0,0,0,0,0,0,0,0,0,0,0,0],"id":5,"left_children":[1,3,5,7,9,11,13,-1,-1,-1,-1,-1,-1,-1,-1],"loss_changes":[6.739878E5,4.1219688E4,1.08700234E5,2.4016094E4,2.7240812E4,1.5808795E4,1.1739594E4,0E0,0E0,0E0,0E0,0E0,0E0,0E0,0E0],"parents":[2147483647,0,0,1,1,2,2,3,3,4,4,5,5,6,6],"right_children":[2,4,6,8,10,12,14,-1,-1,-1,-1,-1,-1,-1,-1],"split_conditions":[1.5E1,7E0,4.2E1,1.22256565E1,4.6E1,4E1,8.6E1,1.3553689E0,3.7933767E0,8.560282E-1,2.3056595E0,1.3058053E-1,8.255127E-1,-3.8961348E-1,-7.3886836E-1],"split_indices":[12,12,12,14,6,6,12,0,0,0,0,0,0,0,0],"split_type":[0,0,0,0,0,0,0,0,0,0,0,0,0,0,0],"sum_hessian":[1.809E3,2.55E2,1.554E3,9.5E1,1.6E2,3.96E2,1.158E3,3E1,6.5E1,8E1,8E1,2.89E2,1.07E2,4.15E2,7.43E2],"tree_param":{"num_deleted":"0","num_feature":"17","num_nodes":"15","size_leaf_vector":"1"}},{"base_weights":[-1.6285285E-1,-5.7761936E0,6.486958E1,-1.1180677E1,1.0757967E1,4.4001534E1,4.988092E0,-6.346561E-1,-1.3572364E-1,3.1849298E-1,8.942265E-1,2.3406475E0,5.866191E-1],"categories":[],"categories_nodes":[],"categories_segments":[],"categories_sizes":[],"default_left":[0,0,0,0,0,0,0,0,0,0,0,0,0],"id":6,"left_children":[1,3,5,7,9,11,-1,-1,-1,-1,-1,-1,-1],"loss_changes":[6.6156506E5,1.50253E5,6.0953E4,1.581475E4,1.1869742E4,4.305125E3,0E0,0E0,0E0,0E0,0E0,0E0,0E0],"parents":[2147483647,0,0,1,1,2,2,3,3,4,4,5,5],"right_children":[2,4,6,8,10,12,-1,-1,-1,-1,-1,-1,-1],"split_conditions":[7.6E1,2.7685715E1,1.2933333E2,1.39375E1,4.594737E1,1.4E2,4.988092E0,-6.346561E-1,-1.3572364E-1,3.1849298E-1,8.942265E-1,2.3406475E0,5.866191E-1],"split_indices":[13,13,13,13,13,6,0,0,0,0,0,0,0],"split_type":[0,0,0,0,0,0,0,0,0,0,0,0,0],"sum_hessian":[1.792E3,1.658E3,1.34E2,1.252E3,4.06E2,9.8E1,3.6E1,1.058E3,1.94E2,2.63E2,1.43E2,8.6E1,1.2E1],"tree_param":{"num_deleted":"0","num_feature":"17","num_nodes":"13","size_leaf_vector":"1"}},{"base_weights":[2.0471185E-1,-8.005013E0,3.8730736E1,-1.1826288E1,3.139044E0,2.2561543E1,7.060985E1,-6.073312E-1,7.364338E-1,1.3210917E-2,4.0658036E-1,1.2656707E0,1.3320598E-1,3.778321E0,1.0149357E0],"categories":[],"categories_nodes":[],"categories_segments":[],"categories_sizes":[],"default_left":[0,0,0,0,0,0,0,0,0,0,0,0,0,0,0],"id":7,"left_children":[1,3,5,7,9,11,13,-1,-1,-1,-1,-1,-1,-1,-1],"loss_changes":[5.815916E5,6.4929445E4,1.5056184E5,1.1409859E4,5.6477666E3,1.1864266E4,1.05945625E4,0E0,0E0,0E0,0E0,0E0,0E0,0E0,0E0],"parents":[2147483647,0,0,1,1,2,2,3,3,4,4,5,5,6,6],"right_children":[2,4,6,8,10,12,14,-1,-1,-1,-1,-1,-1,-1,-1],"split_conditions":[4.305E1,1.7648148E1,9.1333336E1,4.6E1,3.2214287E1,2.4096541E0,1.4021999E2,-6.073312E-1,7.364338E-1,1.3210917E-2,4.0658036E-1,1.2656707E0,1.3320598E-1,3.778321E0,1.0149357E0],"split_indices":[13,13,13,6,13,9,14,0,0,0,0,0,0,0,0],"split_type":[0,0,0,0,0,0,0,0,0,0,0,0,0,0,0],"sum_hessian":[1.819E3,1.506E3,3.13E2,1.121E3,3.85E2,2.19E2,9.4E1,1.113E3,8E0,2.51E2,1.34E2,1.9E2,2.9E1,8.1E1,1.3E1],"tree_param":{"num_deleted":"0","num_feature":"17","num_nodes":"15","size_leaf_vector":"1"}},{"base_weights":[-1.8056096E-1,-5.505919E0,5.2217667E1,-1.0845523E1,9.877523E0,3.8733E1,7.986887E1,-5.9138346E-1,-1.5643027E-1,2.5713316E-1,8.2522964E-1,2.0409782E0,3.6433958E-2,4.406179E0,9.2643565E-1],"categories":[],"categories_nodes":[],"categories_segments":[],"categories_sizes":[],"default_left":[0,0,0,0,0,0,0,0,0,0,0,0,0,0,0],"id":8,"left_children":[1,3,5,7,9,11,13,-1,-1,-1,-1,-1,-1,-1,-1],"loss_changes":[5.0207594E5,1.3520831E5,3.0959188E4,8.853641E3,1.2518145E4,1.0090219E4,6.45625E3,0E0,0E0,0E0,0E0,0E0,0E0,0E0,0E0],"parents":[2147483647,0,0,1,1,2,2,3,3,4,4,5,5,6,6],"right_children":[2,4,6,8,10,12,14,-1,-1,-1,-1,-1,-1,-1,-1],"split_conditions":[6.9666664E1,2.4772728E1,1.22E2,1.4584616E1,3.9416668E1,1.81E2,1.057497E2,-5.9138346E-1,-1.5643027E-1,2.5713316E-1,8.2522964E-1,2.0409782E0,3.6433958E-2,4.406179E0,9.2643565E-1],"split_indices":[13,13,13,13,13,6,14,0,0,0,0,0,0,0,0],"split_type":[0,0,0,0,0,0,0,0,0,0,0,0,0,0,0],"sum_hessian":[1.779E3,1.623E3,1.56E2,1.207E3,4.16E2,1.21E2,3.5E1,1.066E3,1.41E2,2.53E2,1.63E2,1.14E2,7E0,2.7E1,8E0],"tree_param":{"num_deleted":"0","num_feature":"17","num_nodes":"15","size_leaf_vector":"1"}},{"base_weights":[4.0830725E-1,-6.870269E0,3.5223145E1,-1.0019062E1,4.477126E0,2.227751E1,6.747661E1,-6.4840204E-1,-3.6235154E-1,4.120373E-2,3.67901E-1,8.4908E-1,1.7115128E0,3.7554836E0,1.3681546E0],"categories":[],"categories_nodes":[],"categories_segments":[],"categories_sizes":[],"default_left":[0,0,0,0,0,0,0,0,0,0,0,0,0,0,0],"id":9,"left_children":[1,3,5,7,9,11,13,-1,-1,-1,-1,-1,-1,-1,-1],"loss_changes":[4.4992897E5,5.2936875E4,1.1315225E5,8.485383E3,3.3701245E3,8.998992E3,4.8603438E3,0E0,0E0,0E0,0E0,0E0,0E0,0E0,0E0],"parents":[2147483647,0,0,1,1,2,2,3,3,4,4,5,5,6,6],"right_children":[2,4,6,8,10,12,14,-1,-1,-1,-1,-1,-1,-1,-1],"split_conditions":[4.3166668E1,2.2125E1,9.66E1,8.415929E0,3.0548388E1,1.1758543E0,7.84E2,-6.4840204E-1,-3.6235154E-1,4.120373E-2,3.67901E-1,8.4908E-1,1.7115128E0,3.7554836E0,1.3681546E0],"split_indices":[13,13,13,13,13,9,15,0,0,0,0,0,0,0,0],"split_type":[0,0,0,0,0,0,0,0,0,0,0,0,0,0,0],"sum_hessian":[1.756E3,1.459E3,2.97E2,1.143E3,3.16E2,2.24E2,7.3E1,5.36E2,6.07E2,1.45E2,1.71E2,1.72E2,5.2E1,5.4E1,1.9E1],"tree_param":{"num_deleted":"0","num_feature":"17","num_nodes":"15","size_leaf_vector":"1"}},{"base_weights":[6.0967994E-1,5.99715E1,-3.6087825E0,6.693646E1,4.511225E0,1.362927E1,-8.647997E0,3.7893293E0,1.5694102E0,-1.9633435E-1,5.148032E-1,9.400838E-1,3.8104808E-1,-1.927834E-1,-5.5569786E-1],"categories":[],"categories_nodes":[],"categories_segments":[],"categories_sizes":[],"default_left":[0,0,0,0,0,0,0,0,0,0,0,0,0,0,0],"id":10,"left_children":[1,3,5,7,9,11,13,-1,-1,-1,-1,-1,-1,-1,-1],"loss_changes":[4.4915666E5,4.2946844E4,1.467664E5,9.2445625E3,1.5758448E3,1.0469523E4,1.4969797E4,0E0,0E0,0E0,0E0,0E0,0E0,0E0,0E0],"parents":[2147483647,0,0,1,1,2,2,3,3,4,4,5,5,6,6],"right_children":[2,4,6,8,10,12,14,-1,-1,-1,-1,-1,-1,-1,-1],"split_conditions":[4.0837696E-1,1.2185784E2,1.0297483E0,3.726708E-1,5.07E0,7.6840985E-1,2.621951E0,3.7893293E0,1.5694102E0,-1.9633435E-1,5.148032E-1,9.400838E-1,3.8104808E-1,-1.927834E-1,-5.5569786E-1],"split_indices":[16,14,16,16,0,16,16,0,0,0,0,0,0,0,0],"split_type":[0,0,0,0,0,0,0,0,0,0,0,0,0,0,0],"sum_hessian":[1.775E3,1.09E2,1.666E3,9.5E1,1.4E1,3.73E2,1.293E3,6.7E1,2.8E1,7E0,7E0,1.89E2,1.84E2,4.48E2,8.45E2],"tree_param":{"num_deleted":"0","num_feature":"17","num_nodes":"15","size_leaf_vector":"1"}},{"base_weights":[8.661234E-1,-3.904917E0,5.0484543E1,-8.769133E0,9.327772E0,3.8474297E1,3.6428812E0,-5.44057E-1,-2.3329465E-1,2.3759155E-1,7.0439464E-1,4.7084695E-1,2.1742125E0],"categories":[],"categories_nodes":[],"categories_segments":[],"categories_sizes":[],"default_left":[0,0,0,0,0,0,0,0,0,0,0,0,0],"id":11,"left_children":[1,3,5,7,9,11,-1,-1,-1,-1,-1,-1,-1],"loss_changes":[4.264314E5,1.0670111E5,1.4423E4,9.960758E3,9.066945E3,1.3956031E4,0E0,0E0,0E0,0E0,0E0,0E0,0E0],"parents":[2147483647,0,0,1,1,2,2,3,3,4,4,5,5],"right_children":[2,4,6,8,10,12,-1,-1,-1,-1,-1,-1,-1],"split_conditions":[7.6E1,2.5666666E1,1.2933333E2,1.1648149E1,3.8833332E1,2.97E0,3.6428812E0,-5.44057E-1,-2.3329465E-1,2.3759155E-1,7.0439464E-1,4.7084695E-1,2.1742125E0],"split_indices":[13,13,13,13,13,0,0,0,0,0,0,0,0],"split_type":[0,0,0,0,0,0,0,0,0,0,0,0,0],"sum_hessian":[1.783E3,1.635E3,1.48E2,1.198E3,4.37E2,1.14E2,3.4E1,7.8E2,4.18E2,2.33E2,2.04E2,2.1E1,9.3E1],"tree_param":{"num_deleted":"0","num_feature":"17","num_nodes":"13","size_leaf_vector":"1"}},{"base_weights":[6.078824E-1,-3.9580894E0,4.9756443E1,-8.414811E0,7.394575E0,3.3643482E1,4.297968E0,-4.3525034E-1,7.7062184E-1,2.2459936E-1,1.0758778E0,1.8173522E0,-1.1597579E-1],"categories":[],"categories_nodes":[],"categories_segments":[],"categories_sizes":[],"default_left":[0,0,0,0,0,0,0,0,0,0,0,0,0],"id":12,"left_children":[1,3,5,7,9,11,-1,-1,-1,-1,-1,-1,-1],"loss_changes":[4.065828E5,8.456047E4,6.0912812E4,9.611398E3,1.8422957E4,1.2802484E4,0E0,0E0,0E0,0E0,0E0,0E0,0E0],"parents":[2147483647,0,0,1,1,2,2,3,3,4,4,5,5],"right_children":[2,4,6,8,10,12,-1,-1,-1,-1,-1,-1,-1],"split_conditions":[7.6E1,2.4772728E1,1.2933333E2,4.6E1,6E1,1.81E2,4.297968E0,-4.3525034E-1,7.7062184E-1,2.2459936E-1,1.0758778E0,1.8173522E0,-1.1597579E-1],"split_indices":[13,13,13,6,6,6,0,0,0,0,0,0,0],"split_type":[0,0,0,0,0,0,0,0,0,0,0,0,0],"sum_hessian":[1.793E3,1.649E3,1.44E2,1.186E3,4.63E2,1.13E2,3.1E1,1.178E3,8E0,3.95E2,6.8E1,1.05E2,8E0],"tree_param":{"num_deleted":"0","num_feature":"17","num_nodes":"13","size_leaf_vector":"1"}},{"base_weights":[1.8487935E-1,-4.046254E0,4.197536E1,-7.743615E0,9.035342E0,2.5487387E1,7.614289E1,-5.0026315E-1,-1.9621271E-1,7.932486E-1,2.573002E-1,1.9183953E-1,1.3504925E0,4.1014123E0,8.4060425E-1],"categories":[],"categories_nodes":[],"categories_segments":[],"categories_sizes":[],"default_left":[0,0,0,0,0,0,0,0,0,0,0,0,0,0,0],"id":13,"left_children":[1,3,5,7,9,11,13,-1,-1,-1,-1,-1,-1,-1,-1],"loss_changes":[3.1926953E5,8.002216E4,7.410878E4,1.0698484E4,8.905336E3,3.149586E3,3.3183125E3,0E0,0E0,0E0,0E0,0E0,0E0,0E0,0E0],"parents":[2147483647,0,0,1,1,2,2,3,3,4,4,5,5,6,6],"right_children":[2,4,6,8,10,12,14,-1,-1,-1,-1,-1,-1,-1,-1],"split_conditions":[6.9666664E1,2.9555555E1,1.455E2,1.1648149E1,6E0,2E0,2.54E2,-5.0026315E-1,-1.9621271E-1,7.932486E-1,2.573002E-1,1.9183953E-1,1.3504925E0,4.1014123E0,8.4060425E-1],"split_indices":[13,13,13,13,1,2,6,0,0,0,0,0,0,0,0],"split_type":[0,0,0,0,0,0,0,0,0,0,0,0,0,0,0],"sum_hessian":[1.786E3,1.63E3,1.56E2,1.274E3,3.56E2,1.17E2,3.9E1,7.9E2,4.84E2,1.18E2,2.38E2,1E1,1.07E2,3.2E1,7E0],"tree_param":{"num_deleted":"0","num_feature":"17","num_nodes":"15","size_leaf_vector":"1"}},{"base_weights":[1.6283935E-1,2.8156124E1,-5.4443727E0,4.184878E1,1.9661058E1,-6.348615E0,2.382226E1,3.2503006E-1,2.543037E0,2.884755E-1,1.2457758E0,1.016819E-2,-4.510305E-1,1.3229518E-1,1.441511E0],"categories":[],"categories_nodes":[],"categories_segments":[],"categories_sizes":[],"default_left":[0,0,0,0,0,0,0,0,0,0,0,0,0,0,0],"id":14,"left_children":[1,3,5,7,9,11,13,-1,-1,-1,-1,-1,-1,-1,-1],"loss_changes":[2.8218528E5,2.6667469E4,4.1155477E4,3.046014E4,1.3452664E4,2.5595945E4,4.2212285E3,0E0,0E0,0E0,0E0,0E0,0E0,0E0,0E0],"parents":[2147483647,0,0,1,1,2,2,3,3,4,4,5,5,6,6],"right_children":[2,4,6,8,10,12,14,-1,-1,-1,-1,-1,-1,-1,-1],"split_conditions":[1.7E1,7E0,6.2E1,2.1E2,4E0,6E1,7.23E2,3.2503006E-1,2.543037E0,2.884755E-1,1.2457758E0,1.016819E-2,-4.510305E-1,1.3229518E-1,1.441511E0],"split_indices":[12,12,6,15,1,12,15,0,0,0,0,0,0,0,0],"split_type":[0,0,0,0,0,0,0,0,0,0,0,0,0,0,0],"sum_hessian":[1.778E3,2.9E2,1.488E3,9.6E1,1.94E2,1.451E3,3.7E1,2.3E1,7.3E1,5.9E1,1.35E2,4.23E2,1.028E3,1E1,2.7E1],"tree_param":{"num_deleted":"0","num_feature":"17","num_nodes":"15","size_leaf_vector":"1"}},{"base_weights":[2.77317E-1,-4.0338755E0,3.5526493E1,-7.234939E0,6.72203E0,2.3050661E1,3.8382287E0,-3.7736002E-1,6.243623E-1,-6.1607476E-2,4.2101994E-1,2.2845054E0,8.6621284E-1],"categories":[],"categories_nodes":[],"categories_segments":[],"categories_sizes":[],"default_left":[0,0,0,0,0,0,0,0,0,0,0,0,0],"id":15,"left_children":[1,3,5,7,9,11,-1,-1,-1,-1,-1,-1,-1],"loss_changes":[2.7193288E5,5.5402727E4,8.2627734E4,8.541945E3,5.115709E3,1.3345289E4,0E0,0E0,0E0,0E0,0E0,0E0,0E0],"parents":[2147483647,0,0,1,1,2,2,3,3,4,4,5,5],"right_children":[2,4,6,8,10,12,-1,-1,-1,-1,-1,-1,-1],"split_conditions":[5.825E1,2.7363636E1,1.455E2,4.1E1,1E0,1E0,3.8382287E0,-3.7736002E-1,6.243623E-1,-6.1607476E-2,4.2101994E-1,2.2845054E0,8.6621284E-1],"split_indices":[13,13,13,6,4,4,0,0,0,0,0,0,0],"split_type":[0,0,0,0,0,0,0,0,0,0,0,0,0],"sum_hessian":[1.77E3,1.585E3,1.85E2,1.224E3,3.61E2,1.54E2,3.1E1,1.211E3,1.3E1,6.4E1,2.97E2,1.7E1,1.37E2],"tree_param":{"num_deleted":"0","num_feature":"17","num_nodes":"13","size_leaf_vector":"1"}},{"base_weights":[8.6934817E-1,3.491643E1,-4.569613E0,6.0962784E1,2.290296E1,2.3040006E0,-7.7272425E0,3.5048535E0,1.0057515E0,1.4975826E0,7.1073264E-1,2.0639505E-2,5.1035446E-1,-3.118825E-1,-5.429111E-1],"categories":[],"categories_nodes":[],"categories_segments":[],"categories_sizes":[],"default_left":[0,0,0,0,0,0,0,0,0,0,0,0,0,0,0],"id":16,"left_children":[1,3,5,7,9,11,13,-1,-1,-1,-1,-1,-1,-1,-1],"loss_changes":[3.2806956E5,6.2386188E4,3.3364004E4,1.2390219E4,6.9491797E3,7.266551E3,4.2196133E3,0E0,0E0,0E0,0E0,0E0,0E0,0E0,0E0],"parents":[2147483647,0,0,1,1,2,2,3,3,4,4,5,5,6,6],"right_children":[2,4,6,8,10,12,14,-1,-1,-1,-1,-1,-1,-1,-1],"split_conditions":[6.4220184E-1,3.4013605E-1,2.246696E0,7.84E2,5.045E0,4.3E1,8.571428E0,3.5048535E0,1.0057515E0,1.4975826E0,7.1073264E-1,2.0639505E-2,5.1035446E-1,-3.118825E-1,-5.429111E-1],"split_indices":[16,16,16,15,8,6,16,0,0,0,0,0,0,0,0],"split_type":[0,0,0,0,0,0,0,0,0,0,0,0,0,0,0],"sum_hessian":[1.753E3,2.34E2,1.519E3,6.1E1,1.73E2,4.79E2,1.04E3,4.4E1,1.7E1,8.2E1,9.1E1,3.95E2,8.4E1,7.25E2,3.15E2],"tree_param":{"num_deleted":"0","num_feature":"17","num_nodes":"15","size_leaf_vector":"1"}},{"base_weights":[7.232301E-1,-3.5177164E0,4.4919285E1,-6.420734E0,7.2527623E0,3.3997143E1,3.1704557E0,-4.9948308E-1,-2.2477375E-1,1.7807512E-1,6.1784047E-1,8.117344E-1,2.016287E0],"categories":[],"categories_nodes":[],"categories_segments":[],"categories_sizes":[],"default_left":[0,0,0,0,0,0,0,0,0,0,0,0,0],"id":17,"left_children":[1,3,5,7,9,11,-1,-1,-1,-1,-1,-1,-1],"loss_changes":[3.3183766E5,5.1024234E4,9.743781E3,8.338918E3,6.1161973E3,6.829625E3,0E0,0E0,0E0,0E0,0E0,0E0,0E0],"parents":[2147483647,0,0,1,1,2,2,3,3,4,4,5,5],"right_children":[2,4,6,8,10,12,-1,-1,-1,-1,-1,-1,-1],"split_conditions":[7.6E1,3.0103449E1,1.2933333E2,6.5540543E0,4.594737E1,5E0,3.1704557E0,-4.9948308E-1,-2.2477375E-1,1.7807512E-1,6.1784047E-1,8.117344E-1,2.016287E0],"split_indices":[13,13,13,13,13,2,0,0,0,0,0,0,0],"split_type":[0,0,0,0,0,0,0,0,0,0,0,0,0],"sum_hessian":[1.752E3,1.607E3,1.45E2,1.269E3,3.38E2,1.09E2,3.6E1,4.3E2,8.39E2,2.06E2,1.32E2,3.8E1,7.1E1],"tree_param":{"num_deleted":"0","num_feature":"17","num_nodes":"13","size_leaf_vector":"1"}},{"base_weights":[-5.041775E-1,-4.7219567E0,2.1230867E1,-7.0689144E0,2.1354103E0,1.3709504E1,4.00601E1,-5.0722337E-1,-2.8676078E-1,7.465083E-2,5.93793E-1,7.3771733E-1,-1.0512102E-4,2.1800547E0,6.888892E-1],"categories":[],"categories_nodes":[],"categories_segments":[],"categories_sizes":[],"default_left":[0,0,0,0,0,0,0,0,0,0,0,0,0,0,0],"id":18,"left_children":[1,3,5,7,9,11,13,-1,-1,-1,-1,-1,-1,-1,-1],"loss_changes":[1.6638156E5,2.4597715E4,3.6285766E4,4.0695508E3,2.2941533E3,3.2382383E3,1.3443359E3,0E0,0E0,0E0,0E0,0E0,0E0,0E0,0E0],"parents":[2147483647,0,0,1,1,2,2,3,3,4,4,5,5,6,6],"right_children":[2,4,6,8,10,12,14,-1,-1,-1,-1,-1,-1,-1,-1],"split_conditions":[4.3166668E1,1.7648148E1,9.9E1,5.932099E0,8.43E0,1.25E2,7.84E2,-5.0722337E-1,-2.8676078E-1,7.465083E-2,5.93793E-1,7.3771733E-1,-1.0512102E-4,2.1800547E0,6.888892E-1],"split_indices":[13,13,13,13,0,6,15,0,0,0,0,0,0,0,0],"split_type":[0,0,0,0,0,0,0,0,0,0,0,0,0,0,0],"sum_hessian":[1.794E3,1.509E3,2.85E2,1.124E3,3.85E2,2.16E2,6.9E1,3.2E2,8.04E2,3.72E2,1.3E1,2E2,1.6E1,5.5E1,1.4E1],"tree_param":{"num_deleted":"0","num_feature":"17","num_nodes":"15","size_leaf_vector":"1"}},{"base_weights":[6.097936E-1,-2.69319E0,3.9683075E1,-6.1603837E0,6.149364E0,2.2625923E1,6.0551044E1,-4.7239232E-1,-2.4284306E-1,2.273264E-1,7.916624E-1,4.0703493E-1,1.4617923E0,3.4452565E0,2.0846727E-1],"categories":[],"categories_nodes":[],"categories_segments":[],"categories_sizes":[],"default_left":[0,0,0,0,0,0,0,0,0,0,0,0,0,0,0],"id":19,"left_children":[1,3,5,7,9,11,13,-1,-1,-1,-1,-1,-1,-1,-1],"loss_changes":[2.3182555E5,5.121119E4,3.613167E4,4.6661875E3,6.606166E3,6.5240234E3,2.397439E4,0E0,0E0,0E0,0E0,0E0,0E0,0E0,0E0],"parents":[2147483647,0,0,1,1,2,2,3,3,4,4,5,5,6,6],"right_children":[2,4,6,8,10,12,14,-1,-1,-1,-1,-1,-1,-1,-1],"split_conditions":[7.6E1,2.4772728E1,1.12E2,5.932099E0,7.9566665E0,4.2E0,1.2185784E2,-4.7239232E-1,-2.4284306E-1,2.273264E-1,7.916624E-1,4.0703493E-1,1.4617923E0,3.4452565E0,2.0846727E-1],"split_indices":[13,13,13,13,8,8,14,0,0,0,0,0,0,0,0],"split_type":[0,0,0,0,0,0,0,0,0,0,0,0,0,0,0],"sum_hessian":[1.778E3,1.648E3,1.3E2,1.186E3,4.62E2,8.3E1,4.7E1,3.19E2,8.67E2,4.09E2,5.3E1,3.3E1,5E1,3.9E1,8E0],"tree_param":{"num_deleted":"0","num_feature":"17","num_nodes":"15","size_leaf_vector":"1"}},{"base_weights":[6.76133E-1,-2.5960572E0,4.3086174E1,-5.5889516E0,6.6182394E0,2.9296165E1,3.1926448E0,-2.9501802E-1,4.8803622E-1,1.1046429E-1,5.7395476E-1,1.6681626E0,9.406998E-2],"categories":[],"categories_nodes":[],"categories_segments":[],"categories_sizes":[],"default_left":[0,0,0,0,0,0,0,0,0,0,0,0,0],"id":20,"left_children":[1,3,5,7,9,11,-1,-1,-1,-1,-1,-1,-1],"loss_changes":[2.4994022E5,4.6534477E4,1.823475E4,6.6417266E3,8.640242E3,1.0075773E4,0E0,0E0,0E0,0E0,0E0,0E0,0E0],"parents":[2147483647,0,0,1,1,2,2,3,3,4,4,5,5],"right_children":[2,4,6,8,10,12,-1,-1,-1,-1,-1,-1,-1],"split_conditions":[7.95E1,2.8666666E1,1.455E2,4.3E1,4.3166668E1,1.6E2,3.1926448E0,-2.9501802E-1,4.8803622E-1,1.1046429E-1,5.7395476E-1,1.6681626E0,9.406998E-2],"split_indices":[13,13,13,6,13,6,0,0,0,0,0,0,0],"split_type":[0,0,0,0,0,0,0,0,0,0,0,0,0],"sum_hessian":[1.783E3,1.664E3,1.19E2,1.259E3,4.05E2,8.6E1,3.3E1,1.24E3,1.9E1,2.2E2,1.85E2,7.3E1,1.3E1],"tree_param":{"num_deleted":"0","num_feature":"17","num_nodes":"13","size_leaf_vector":"1"}},{"base_weights":[9.8782766E-1,4.2149372E1,-2.5270731E0,4.502742E1,3.903082E-1,5.4839683E0,-5.377348E0,2.7558093E0,1.1943401E0,7.105059E-2,4.2778802E-1,-1.8865286E-1,-4.112297E-1],"categories":[],"categories_nodes":[],"categories_segments":[],"categories_sizes":[],"default_left":[0,0,0,0,0,0,0,0,0,0,0,0,0],"id":21,"left_children":[1,3,5,7,-1,9,11,-1,-1,-1,-1,-1,-1],"loss_changes":[2.5931711E5,1.04211875E4,3.8061777E4,1.4133906E4,0E0,5.357289E3,5.285129E3,0E0,0E0,0E0,0E0,0E0,0E0],"parents":[2147483647,0,0,1,1,2,2,3,3,5,5,6,6],"right_children":[2,4,6,8,-1,10,12,-1,-1,-1,-1,-1,-1],"split_conditions":[4.391892E-1,1.1101576E2,1.266055E0,3.726708E-1,3.903082E-1,2.8E1,5.025694E0,2.7558093E0,1.1943401E0,7.105059E-2,4.2778802E-1,-1.8865286E-1,-4.112297E-1],"split_indices":[16,14,16,16,0,6,16,0,0,0,0,0,0],"split_type":[0,0,0,0,0,0,0,0,0,0,0,0,0],"sum_hessian":[1.775E3,1.31E2,1.644E3,1.18E2,1.3E1,4.29E2,1.215E3,6.9E1,4.9E1,1.91E2,2.38E2,7.92E2,4.23E2],"tree_param":{"num_deleted":"0","num_feature":"17","num_nodes":"13","size_leaf_vector":"1"}},{"base_weights":[4.4315216E-1,-2.604139E0,2.8169205E1,-4.904543E0,6.474945E0,1.8007156E1,5.266169E1,-2.579024E-1,8.623144E-1,2.140104E-1,6.712374E-1,1.0148333E0,-3.6879194E-1,3.0980883E0,-9.885413E-3],"categories":[],"categories_nodes":[],"categories_segments":[],"categories_sizes":[],"default_left":[0,0,0,0,0,0,0,0,0,0,0,0,0,0,0],"id":22,"left_children":[1,3,5,7,9,11,13,-1,-1,-1,-1,-1,-1,-1,-1],"loss_changes":[1.5188528E5,3.4173043E4,3.4819516E4,8.183793E3,4.489209E3,9.69134E3,2.3228156E4,0E0,0E0,0E0,0E0,0E0,0E0,0E0,0E0],"parents":[2147483647,0,0,1,1,2,2,3,3,4,4,5,5,6,6],"right_children":[2,4,6,8,10,12,14,-1,-1,-1,-1,-1,-1,-1,-1],"split_conditions":[6.1066666E1,3.0103449E1,1.22E2,5.8E1,5.2E1,1.81E2,1.4021999E2,-2.579024E-1,8.623144E-1,2.140104E-1,6.712374E-1,1.0148333E0,-3.6879194E-1,3.0980883E0,-9.885413E-3],"split_indices":[13,13,13,6,6,6,14,0,0,0,0,0,0,0,0],"split_type":[0,0,0,0,0,0,0,0,0,0,0,0,0,0,0],"sum_hessian":[1.779E3,1.611E3,1.68E2,1.289E3,3.22E2,1.31E2,3.7E1,1.282E3,7E0,2.57E2,6.5E1,1.22E2,9E0,3E1,7E0],"tree_param":{"num_deleted":"0","num_feature":"17","num_nodes":"15","size_leaf_vector":"1"}},{"base_weights":[1.1082052E0,-2.2915318E0,3.9748257E1,-5.319098E0,4.43581E0,2.8393095E1,2.9253807E0,-2.7887645E-1,6.5608853E-1,1.5526779E-1,8.226928E-1,3.274381E-1,1.7317377E0],"categories":[],"categories_nodes":[],"categories_segments":[],"categories_sizes":[],"default_left":[0,0,0,0,0,0,0,0,0,0,0,0,0],"id":23,"left_children":[1,3,5,7,9,11,-1,-1,-1,-1,-1,-1,-1],"loss_changes":[2.3881506E5,3.4331105E4,1.47003125E4,6.2552305E3,7.8833213E3,1.2865719E4,0E0,0E0,0E0,0E0,0E0,0E0,0E0],"parents":[2147483647,0,0,1,1,2,2,3,3,4,4,5,5],"right_children":[2,4,6,8,10,12,-1,-1,-1,-1,-1,-1,-1],"split_conditions":[7.6E1,2.0625E1,1.22E2,4.3E1,8.19E0,3.5E1,2.9253807E0,-2.7887645E-1,6.5608853E-1,1.5526779E-1,8.226928E-1,3.274381E-1,1.7317377E0],"split_indices":[13,13,13,6,0,6,0,0,0,0,0,0,0],"split_type":[0,0,0,0,0,0,0,0,0,0,0,0,0],"sum_hessian":[1.801E3,1.664E3,1.37E2,1.149E3,5.15E2,1.01E2,3.6E1,1.14E3,9E0,4.75E2,4E1,2.7E1,7.4E1],"tree_param":{"num_deleted":"0","num_feature":"17","num_nodes":"13","size_leaf_vector":"1"}},{"base_weights":[-9.8311044E-2,-2.6780043E0,2.8800964E1,-3.9162867E0,7.8660326E0,2.075431E1,4.4734596E1,-2.6072583E-1,-3.1106328E-3,8.462704E-1,1.4240131E-1,5.6843555E-1,1.7180153E0,2.4784505E0,4.5175487E-1],"categories":[],"categories_nodes":[],"categories_segments":[],"categories_sizes":[],"default_left":[0,0,0,0,0,0,0,0,0,0,0,0,0,0,0],"id":24,"left_children":[1,3,5,7,9,11,13,-1,-1,-1,-1,-1,-1,-1,-1],"loss_changes":[1.319067E5,2.1511766E4,9.305781E3,7.3017754E3,7.4278027E3,1.0778773E4,2.42425E3,0E0,0E0,0E0,0E0,0E0,0E0,0E0,0E0],"parents":[2147483647,0,0,1,1,2,2,3,3,4,4,5,5,6,6],"right_children":[2,4,6,8,10,12,14,-1,-1,-1,-1,-1,-1,-1,-1],"split_conditions":[7.6E1,4.1E1,1.2933333E2,1.7648148E1,3.9833333E0,6E0,1.2185784E2,-2.6072583E-1,-3.1106328E-3,8.462704E-1,1.4240131E-1,5.6843555E-1,1.7180153E0,2.4784505E0,4.5175487E-1],"split_indices":[13,6,13,13,8,1,14,0,0,0,0,0,0,0,0],"split_type":[0,0,0,0,0,0,0,0,0,0,0,0,0,0,0],"sum_hessian":[1.749E3,1.614E3,1.35E2,1.45E3,1.64E2,1.05E2,3E1,1.082E3,3.68E2,5E1,1.14E2,7.3E1,3.2E1,2.3E1,7E0],"tree_param":{"num_deleted":"0","num_feature":"17","num_nodes":"15","size_leaf_vector":"1"}},{"base_weights":[3.480234E-1,-2.0184958E0,2.8840466E1,-5.1429915E0,3.3811216E0,2.7735841E0,2.1956203E1,-2.7023906E-1,4.5333314E-1,1.0005175E-1,6.034454E-1,1.2182406E0,-3.980282E-1],"categories":[],"categories_nodes":[],"categories_segments":[],"categories_sizes":[],"default_left":[0,0,0,0,0,0,0,0,0,0,0,0,0],"id":25,"left_children":[1,3,5,7,9,-1,11,-1,-1,-1,-1,-1,-1],"loss_changes":[1.2222237E5,2.8432969E4,1.33035E4,4.4517266E3,7.1920938E3,0E0,1.1091074E4,0E0,0E0,0E0,0E0,0E0,0E0],"parents":[2147483647,0,0,1,1,2,2,3,3,4,4,6,6],"right_children":[2,4,6,8,10,-1,12,-1,-1,-1,-1,-1,-1],"split_conditions":[7.9E1,1.4584616E1,4E0,3.6E1,6E1,2.7735841E0,1.96E2,-2.7023906E-1,4.5333314E-1,1.0005175E-1,6.034454E-1,1.2182406E0,-3.980282E-1],"split_indices":[13,13,12,6,6,0,13,0,0,0,0,0,0],"split_type":[0,0,0,0,0,0,0,0,0,0,0,0,0],"sum_hessian":[1.794E3,1.665E3,1.29E2,1.055E3,6.1E2,1.2E1,1.17E2,1.042E3,1.3E1,5.37E2,7.3E1,1.1E2,7E0],"tree_param":{"num_deleted":"0","num_feature":"17","num_nodes":"13","size_leaf_vector":"1"}},{"base_weights":[3.3301613E-1,3.706934E1,-1.4192784E0,4.379489E1,7.1484427E0,8.023356E0,-3.6416564E0,2.5757687E0,9.354543E-1,-2.6276568E-1,8.7683594E-1,4.9470457E-1,-1.5815376E-1,-6.393482E-2,-2.8159317E-1],"categories":[],"categories_nodes":[],"categories_segments":[],"categories_sizes":[],"default_left":[0,0,0,0,0,0,0,0,0,0,0,0,0,0,0],"id":26,"left_children":[1,3,5,7,9,11,13,-1,-1,-1,-1,-1,-1,-1,-1],"loss_changes":[1.1594701E5,1.337007E4,3.6407504E4,2.950086E3,4.400781E3,7.2398105E3,6.5118066E3,0E0,0E0,0E0,0E0,0E0,0E0,0E0,0E0],"parents":[2147483647,0,0,1,1,2,2,3,3,4,4,5,5,6,6],"right_children":[2,4,6,8,10,12,14,-1,-1,-1,-1,-1,-1,-1,-1],"split_conditions":[3.6363637E-1,7.84E2,9.579832E-1,8E0,5.03E0,7.2591324E1,8.6E1,2.5757687E0,9.354543E-1,-2.6276568E-1,8.7683594E-1,4.9470457E-1,-1.5815376E-1,-6.393482E-2,-2.8159317E-1],"split_indices":[16,15,16,2,0,14,12,0,0,0,0,0,0,0,0],"split_type":[0,0,0,0,0,0,0,0,0,0,0,0,0,0,0],"sum_hessian":[1.783E3,7.2E1,1.711E3,5.5E1,1.7E1,3.21E2,1.39E3,3.4E1,2.1E1,1E1,7E0,2.76E2,4.5E1,6.43E2,7.47E2],"tree_param":{"num_deleted":"0","num_feature":"17","num_nodes":"15","size_leaf_vector":"1"}},{"base_weights":[7.11798E-1,-4.746746E-1,5.0741653E1,-3.5787835E0,9.798998E0,2.7872417E0,5.2961814E-1,-1.9805665E-1,8.467304E-1,5.6827873E-1,-4.6384928E-1],"categories":[],"categories_nodes":[],"categories_segments":[],"categories_sizes":[],"default_left":[0,0,0,0,0,0,0,0,0,0,0],"id":27,"left_children":[1,3,5,7,9,-1,-1,-1,-1,-1,-1],"loss_changes":[1.0762189E5,5.7020215E4,2.5313594E3,1.1431662E4,1.3456254E4,0E0,0E0,0E0,0E0,0E0,0E0],"parents":[2147483647,0,0,1,1,2,2,3,3,4,4],"right_children":[2,4,6,8,10,-1,-1,-1,-1,-1,-1],"split_conditions":[1.2933333E2,3.2214287E1,1.2185784E2,5.2E1,1.25E2,2.7872417E0,5.2961814E-1,-1.9805665E-1,8.467304E-1,5.6827873E-1,-4.6384928E-1],"split_indices":[13,13,14,6,6,0,0,0,0,0,0],"split_type":[0,0,0,0,0,0,0,0,0,0,0],"sum_hessian":[1.799E3,1.767E3,3.2E1,1.362E3,4.05E2,2.5E1,7E0,1.345E3,1.7E1,3.78E2,2.7E1],"tree_param":{"num_deleted":"0","num_feature":"17","num_nodes":"11","size_leaf_vector":"1"}},{"base_weights":[-1.7969607E-1,-2.2972188E0,2.7130455E1,-4.3604083E0,2.1820147E0,3.704662E1,1.181977E1,-3.59065E-1,-1.5858077E-1,1.6670297E-1,-2.4917899E-1,2.0881956E0,1.8316674E-1,-2.8476986E-1,1.0146321E0],"categories":[],"categories_nodes":[],"categories_segments":[],"categories_sizes":[],"default_left":[0,0,0,0,0,0,0,0,0,0,0,0,0,0,0],"id":28,"left_children":[1,3,5,7,9,11,13,-1,-1,-1,-1,-1,-1,-1,-1],"loss_changes":[1.028662E5,1.5343655E4,1.50540625E4,3.5715996E3,4.516569E3,9.965539E3,1.0802139E4,0E0,0E0,0E0,0E0,0E0,0E0,0E0,0E0],"parents":[2147483647,0,0,1,1,2,2,3,3,4,4,5,5,6,6],"right_children":[2,4,6,8,10,12,14,-1,-1,-1,-1,-1,-1,-1,-1],"split_conditions":[8.3E1,2.0625E1,3.2608697E-1,5.932099E0,2.0551643E0,4E0,3.468208E-1,-3.59065E-1,-1.5858077E-1,1.6670297E-1,-2.4917899E-1,2.0881956E0,1.8316674E-1,-2.8476986E-1,1.0146321E0],"split_indices":[13,13,16,13,9,4,16,0,0,0,0,0,0,0,0],"split_type":[0,0,0,0,0,0,0,0,0,0,0,0,0,0,0],"sum_hessian":[1.758E3,1.64E3,1.18E2,1.123E3,5.17E2,6.3E1,5.5E1,3.18E2,8.05E2,4.5E2,6.7E1,5.3E1,1E1,1.9E1,3.6E1],"tree_param":{"num_deleted":"0","num_feature":"17","num_nodes":"15","size_leaf_vector":"1"}},{"base_weights":[1.5317588E-1,-1.9941399E0,2.5313921E1,-2.7569704E0,1.4548524E1,2.9082916E1,-5.30508E-1,-2.2739764E-1,4.0824443E-2,8.855864E-1,-3.4238634E-1,9.7297126E-1,3.0601256E0],"categories":[],"categories_nodes":[],"categories_segments":[],"categories_sizes":[],"default_left":[0,0,0,0,0,0,0,0,0,0,0,0,0],"id":29,"left_children":[1,3,5,7,9,11,-1,-1,-1,-1,-1,-1,-1],"loss_changes":[9.8944164E4,2.1702271E4,2.2583195E4,1.0417975E4,6.3566895E3,2.9200188E4,0E0,0E0,0E0,0E0,0E0,0E0,0E0],"parents":[2147483647,0,0,1,1,2,2,3,3,4,4,5,5],"right_children":[2,4,6,8,10,12,-1,-1,-1,-1,-1,-1,-1],"split_conditions":[7.6E1,6E1,1.4021999E2,1.4584616E1,2.604176E0,1.73E2,-5.30508E-1,-2.2739764E-1,4.0824443E-2,8.855864E-1,-3.4238634E-1,9.7297126E-1,3.0601256E0],"split_indices":[13,6,14,13,9,13,0,0,0,0,0,0,0],"split_type":[0,0,0,0,0,0,0,0,0,0,0,0,0],"sum_hessian":[1.812E3,1.678E3,1.34E2,1.612E3,6.6E1,1.23E2,1.1E1,1.072E3,5.4E2,5.9E1,7E0,1.07E2,1.6E1],"tree_param":{"num_deleted":"0","num_feature":"17","num_nodes":"13","size_leaf_vector":"1"}},{"base_weights":[3.0851868E-1,-2.274938E0,2.1339027E1,-3.3465204E0,8.245041E0,2.3440565E1,-3.0638117E-1,-2.782816E-1,-9.6464545E-2,5.2467805E-1,-4.4641042E-1,8.730073E-1,2.4359186E0],"categories":[],"categories_nodes":[],"categories_segments":[],"categories_sizes":[],"default_left":[0,0,0,0,0,0,0,0,0,0,0,0,0],"id":30,"left_children":[1,3,5,7,9,11,-1,-1,-1,-1,-1,-1,-1],"loss_changes":[9.833651E4,1.8459258E4,1.2865523E4,4.51883E3,6.806291E3,1.9611016E4,0E0,0E0,0E0,0E0,0E0,0E0,0E0],"parents":[2147483647,0,0,1,1,2,2,3,3,4,4,5,5],"right_children":[2,4,6,8,10,12,-1,-1,-1,-1,-1,-1,-1],"split_conditions":[5.6E1,4.1E1,1.1101576E2,8.415929E0,1.9924942E0,1.5475E2,-3.0638117E-1,-2.782816E-1,-9.6464545E-2,5.2467805E-1,-4.4641042E-1,8.730073E-1,2.4359186E0],"split_indices":[13,6,14,13,9,13,0,0,0,0,0,0,0],"split_type":[0,0,0,0,0,0,0,0,0,0,0,0,0],"sum_hessian":[1.791E3,1.603E3,1.88E2,1.461E3,1.42E2,1.76E2,1.2E1,5.58E2,9.03E2,1.29E2,1.3E1,1.56E2,2E1],"tree_param":{"num_deleted":"0","num_feature":"17","num_nodes":"13","size_leaf_vector":"1"}},{"base_weights":[3.0863515E-1,-1.2221924E0,3.0273975E1,-3.1535544E0,6.8599935E0,1.5159765E1,2.2494352E0,-1.7075315E-1,4.2895418E-1,1.5037084E-1,6.622443E-1,1.153376E0,-1.2313312E-1],"categories":[],"categories_nodes":[],"categories_segments":[],"categories_sizes":[],"default_left":[0,0,0,0,0,0,0,0,0,0,0,0,0],"id":31,"left_children":[1,3,5,7,9,11,-1,-1,-1,-1,-1,-1,-1],"loss_changes":[8.21138E4,2.683071E4,1.2528141E4,4.5362266E3,7.7681406E3,8.650805E3,0E0,0E0,0E0,0E0,0E0,0E0,0E0],"parents":[2147483647,0,0,1,1,2,2,3,3,4,4,5,5],"right_children":[2,4,6,8,10,12,-1,-1,-1,-1,-1,-1,-1],"split_conditions":[9.3333336E1,3.3055557E1,1.2933333E2,5.4E1,1.13738E0,7.5E1,2.2494352E0,-1.7075315E-1,4.2895418E-1,1.5037084E-1,6.622443E-1,1.153376E0,-1.2313312E-1],"split_indices":[13,13,13,6,9,6,0,0,0,0,0,0,0],"split_type":[0,0,0,0,0,0,0,0,0,0,0,0,0],"sum_hessian":[1.772E3,1.695E3,7.7E1,1.373E3,3.22E2,4.8E1,2.9E1,1.35E3,2.3E1,2.1E2,1.12E2,3.1E1,1.7E1],"tree_param":{"num_deleted":"0","num_feature":"17","num_nodes":"13","size_leaf_vector":"1"}},{"base_weights":[1.1892004E-1,-2.3255734E0,1.2143218E1,-3.7058964E0,1.6484858E0,2.1007195E1,6.277588E0,-2.6329675E-1,-1.2013476E-1,4.086843E-2,5.674552E-1,1.2130709E0,-1.3495967E-1,-3.4634563E-1,3.9181027E-1],"categories":[],"categories_nodes":[],"categories_segments":[],"categories_sizes":[],"default_left":[0,0,0,0,0,0,0,0,0,0,0,0,0,0,0],"id":32,"left_children":[1,3,5,7,9,11,13,-1,-1,-1,-1,-1,-1,-1,-1],"loss_changes":[5.2543816E4,8.212544E3,1.4382805E4,2.1219453E3,3.0514307E3,9.604E3,4.576646E3,0E0,0E0,0E0,0E0,0E0,0E0,0E0,0E0],"parents":[2147483647,0,0,1,1,2,2,3,3,4,4,5,5,6,6],"right_children":[2,4,6,8,10,12,14,-1,-1,-1,-1,-1,-1,-1,-1],"split_conditions":[4.3166668E1,1.7648148E1,7.46E2,8.25E2,8.43E0,4E0,2E0,-2.6329675E-1,-1.2013476E-1,4.086843E-2,5.674552E-1,1.2130709E0,-1.3495967E-1,-3.4634563E-1,3.9181027E-1],"split_indices":[13,13,15,15,0,4,1,0,0,0,0,0,0,0,0],"split_type":[0,0,0,0,0,0,0,0,0,0,0,0,0,0,0],"sum_hessian":[1.768E3,1.476E3,2.92E2,1.096E3,3.8E2,1.06E2,1.86E2,4.85E2,6.11E2,3.6E2,2E1,9.3E1,1.3E1,1.6E1,1.7E2],"tree_param":{"num_deleted":"0","num_feature":"17","num_nodes":"15","size_leaf_vector":"1"}},{"base_weights":[8.1529427E-1,-1.4293113E0,2.3335327E1,-3.3327138E0,2.650197E0,1.6192276E1,4.3283756E1,-2.7298015E-1,-1.2155487E-1,7.3363684E-2,3.5259205E-1,2.815638E-2,1.0673343E0,4.957171E-1,2.388242E0],"categories":[],"categories_nodes":[],"categories_segments":[],"categories_sizes":[],"default_left":[0,0,0,0,0,0,0,0,0,0,0,0,0,0,0],"id":33,"left_children":[1,3,5,7,9,11,13,-1,-1,-1,-1,-1,-1,-1,-1],"loss_changes":[9.0916836E4,1.2815078E4,1.6217078E4,2.0187822E3,2.6404326E3,1.0835602E4,7.965078E2,0E0,0E0,0E0,0E0,0E0,0E0,0E0,0E0],"parents":[2147483647,0,0,1,1,2,2,3,3,4,4,5,5,6,6],"right_children":[2,4,6,8,10,12,14,-1,-1,-1,-1,-1,-1,-1,-1],"split_conditions":[6.9666664E1,1.7648148E1,1.5475E2,5.932099E0,4.85E1,2.8867513E-2,1.9189766E-1,-2.7298015E-1,-1.2155487E-1,7.3363684E-2,3.5259205E-1,2.815638E-2,1.0673343E0,4.957171E-1,2.388242E0],"split_indices":[13,13,13,13,13,9,16,0,0,0,0,0,0,0,0],"split_type":[0,0,0,0,0,0,0,0,0,0,0,0,0,0,0],"sum_hessian":[1.782E3,1.629E3,1.53E2,1.112E3,5.17E2,1.26E2,2.7E1,3.16E2,7.96E2,4.18E2,9.9E1,3.4E1,9.2E1,7E0,2E1],"tree_param":{"num_deleted":"0","num_feature":"17","num_nodes":"15","size_leaf_vector":"1"}},{"base_weights":[4.7305125E-1,-2.1173584E0,1.1642662E1,-3.3012798E0,8.4209526E-1,1.7589632E1,2.145388E0,-1.7761132E-1,3.6773887E-1,1.1931809E-1,-1.09404884E-1,4.5672408E-1,1.7956553E0,4.5163637E-1,-2.9100084E-1],"categories":[],"categories_nodes":[],"categories_segments":[],"categories_sizes":[],"default_left":[0,0,0,0,0,0,0,0,0,0,0,0,0,0,0],"id":34,"left_children":[1,3,5,7,9,11,13,-1,-1,-1,-1,-1,-1,-1,-1],"loss_changes":[5.1343824E4,5.0802466E3,1.8486758E4,3.0208916E3,2.0175769E3,2.8324324E4,8.206201E3,0E0,0E0,0E0,0E0,0E0,0E0,0E0,0E0],"parents":[2147483647,0,0,1,1,2,2,3,3,4,4,5,5,6,6],"right_children":[2,4,6,8,10,12,14,-1,-1,-1,-1,-1,-1,-1,-1],"split_conditions":[4.0608696E1,1.39375E1,5.2266665E0,4E1,5E0,1.0000666E0,5.676978E1,-1.7761132E-1,3.6773887E-1,1.1931809E-1,-1.09404884E-1,4.5672408E-1,1.7956553E0,4.5163637E-1,-2.9100084E-1],"split_indices":[13,13,8,7,8,9,14,0,0,0,0,0,0,0,0],"split_type":[0,0,0,0,0,0,0,0,0,0,0,0,0,0,0],"sum_hessian":[1.756E3,1.432E3,3.24E2,1.022E3,4.1E2,1.94E2,1.3E2,1.005E3,1.7E1,2.73E2,1.37E2,1.43E2,5.1E1,6.9E1,6.1E1],"tree_param":{"num_deleted":"0","num_feature":"17","num_nodes":"15","size_leaf_vector":"1"}},{"base_weights":[7.0942205E-1,-6.2486845E-1,2.525306E1,-2.4632928E0,5.3484006E0,2.9929922E1,-6.6302556E-1,-8.941844E-2,-3.5865647E-1,1.05535366E-1,7.5384736E-1,4.7817978E-1,1.6957225E0],"categories":[],"categories_nodes":[],"categories_segments":[],"categories_sizes":[],"default_left":[0,0,0,0,0,0,0,0,0,0,0,0,0],"id":35,"left_children":[1,3,5,7,9,11,-1,-1,-1,-1,-1,-1,-1],"loss_changes":[5.9072316E4,1.8975805E4,2.0720426E4,4.0644424E3,1.2501304E4,3.7350469E3,0E0,0E0,0E0,0E0,0E0,0E0,0E0],"parents":[2147483647,0,0,1,1,2,2,3,3,4,4,5,5],"right_children":[2,4,6,8,10,12,-1,-1,-1,-1,-1,-1,-1],"split_conditions":[9.9E1,2.7E1,2.1708179E2,4.8644115E1,4.8644115E1,2.9233334E0,-6.6302556E-1,-8.941844E-2,-3.5865647E-1,1.05535366E-1,7.5384736E-1,4.7817978E-1,1.6957225E0],"split_indices":[13,6,14,14,14,8,0,0,0,0,0,0,0],"split_type":[0,0,0,0,0,0,0,0,0,0,0,0,0],"sum_hessian":[1.789E3,1.706E3,8.3E1,1.309E3,3.97E2,7.6E1,7E0,1.157E3,1.52E2,3.07E2,9E1,1.8E1,5.8E1],"tree_param":{"num_deleted":"0","num_feature":"17","num_nodes":"13","size_leaf_vector":"1"}},{"base_weights":[4.1998532E-1,2.1209366E1,-1.2477258E0,2.4719643E1,-3.702078E0,-2.420184E0,3.6180964E0,1.5501983E0,2.435541E-1,-8.127217E-1,5.1045406E-1,-8.8944696E-2,-3.6449805E-1,5.432765E-1,5.9647806E-2],"categories":[],"categories_nodes":[],"categories_segments":[],"categories_sizes":[],"default_left":[0,0,0,0,0,0,0,0,0,0,0,0,0,0,0],"id":36,"left_children":[1,3,5,7,9,11,13,-1,-1,-1,-1,-1,-1,-1,-1],"loss_changes":[6.163194E4,1.2458234E4,9.489349E3,1.3083367E4,6.0249346E3,4.0362305E3,5.5648965E3,0E0,0E0,0E0,0E0,0E0,0E0,0E0,0E0],"parents":[2147483647,0,0,1,1,2,2,3,3,4,4,5,5,6,6],"right_children":[2,4,6,8,10,12,14,-1,-1,-1,-1,-1,-1,-1,-1],"split_conditions":[4.347826E-1,1.2185784E2,2.8E1,5.4133334E0,5.3244443E0,4.435552E1,2.92E0,1.5501983E0,2.435541E-1,-8.127217E-1,5.1045406E-1,-8.8944696E-2,-3.6449805E-1,5.432765E-1,5.9647806E-2],"split_indices":[16,14,6,8,10,14,0,0,0,0,0,0,0,0,0],"split_type":[0,0,0,0,0,0,0,0,0,0,0,0,0,0,0],"sum_hessian":[1.76E3,1.22E2,1.638E3,1.07E2,1.5E1,1.324E3,3.14E2,7.7E1,3E1,7E0,8E0,1.182E3,1.42E2,7E1,2.44E2],"tree_param":{"num_deleted":"0","num_feature":"17","num_nodes":"15","size_leaf_vector":"1"}},{"base_weights":[9.6286404E-1,-4.3289724E-1,2.8302277E1,-2.6976883E0,4.257792E0,3.3780334E1,-3.4694394E-1,-2.4515934E-1,-9.250009E-2,1.1615405E-1,4.1962036E-1,9.744422E-1,2.535729E0],"categories":[],"categories_nodes":[],"categories_segments":[],"categories_sizes":[],"default_left":[0,0,0,0,0,0,0,0,0,0,0,0,0],"id":37,"left_children":[1,3,5,7,9,11,-1,-1,-1,-1,-1,-1,-1],"loss_changes":[6.835162E4,1.829154E4,1.913986E4,2.0779258E3,4.2925293E3,8.75082E3,0E0,0E0,0E0,0E0,0E0,0E0,0E0],"parents":[2147483647,0,0,1,1,2,2,3,3,4,4,5,5],"right_children":[2,4,6,8,10,12,-1,-1,-1,-1,-1,-1,-1],"split_conditions":[9.8E1,2.2125E1,1.4021999E2,5.932099E0,1.1113955E0,1.73E2,-3.4694394E-1,-2.4515934E-1,-9.250009E-2,1.1615405E-1,4.1962036E-1,9.744422E-1,2.535729E0],"split_indices":[13,13,14,13,9,13,0,0,0,0,0,0,0],"split_type":[0,0,0,0,0,0,0,0,0,0,0,0,0],"sum_hessian":[1.778E3,1.701E3,7.7E1,1.15E3,5.51E2,6.7E1,1E1,3.06E2,8.44E2,3.86E2,1.65E2,4.8E1,1.9E1],"tree_param":{"num_deleted":"0","num_feature":"17","num_nodes":"13","size_leaf_vector":"1"}},{"base_weights":[-4.1447286E-2,-1.951304E0,7.0844545E0,-4.631465E0,-1.1503986E0,2.0959705E1,3.5131414E0,-2.4306579E-1,6.691959E-2,-6.59974E-2,3.9632967E-1,4.670839E-1,1.5212437E0,-3.3325832E-2,5.2969354E-1],"categories":[],"categories_nodes":[],"categories_segments":[],"categories_sizes":[],"default_left":[0,0,0,0,0,0,0,0,0,0,0,0,0,0,0],"id":38,"left_children":[1,3,5,7,9,11,13,-1,-1,-1,-1,-1,-1,-1,-1],"loss_changes":[2.4852953E4,3.0377021E3,1.8390818E4,5.1517236E2,1.8313171E3,5.624832E3,9.511521E3,0E0,0E0,0E0,0E0,0E0,0E0,0E0,0E0],"parents":[2147483647,0,0,1,1,2,2,3,3,4,4,5,5,6,6],"right_children":[2,4,6,8,10,12,14,-1,-1,-1,-1,-1,-1,-1,-1],"split_conditions":[3.6884617E1,5.932099E0,8E0,3E2,9.4E1,5.79E0,6.3E1,-2.4306579E-1,6.691959E-2,-6.59974E-2,3.9632967E-1,4.670839E-1,1.5212437E0,-3.3325832E-2,5.2969354E-1],"split_indices":[13,13,6,1,6,0,6,0,0,0,0,0,0,0,0],"split_type":[0,0,0,0,0,0,0,0,0,0,0,0,0,0,0],"sum_hessian":[1.806E3,1.43E3,3.76E2,3.18E2,1.112E3,6.7E1,3.09E2,3.08E2,1E1,1.1E3,1.2E1,3.9E1,2.8E1,2E2,1.09E2],"tree_param":{"num_deleted":"0","num_feature":"17","num_nodes":"15","size_leaf_vector":"1"}},{"base_weights":[7.4016064E-1,-5.4483694E-1,2.1932955E1,-2.9635682E0,1.942303E0,3.728522E1,1.0783986E1,-1.0265925E-1,-2.1792333E-1,3.5417843E-1,2.9634163E-2,-6.579613E-2,2.3213212E0,-1.404983E-1,1.6574913E0],"categories":[],"categories_nodes":[],"categories_segments":[],"categories_sizes":[],"default_left":[0,0,0,0,0,0,0,0,0,0,0,0,0,0,0],"id":39,"left_children":[1,3,5,7,9,11,13,-1,-1,-1,-1,-1,-1,-1,-1],"loss_changes":[4.7640754E4,1.0013594E4,1.3094879E4,9.809678E2,5.6615957E3,1.4020098E4,2.2822697E4,0E0,0E0,0E0,0E0,0E0,0E0,0E0,0E0],"parents":[2147483647,0,0,1,1,2,2,3,3,4,4,5,5,6,6],"right_children":[2,4,6,8,10,12,14,-1,-1,-1,-1,-1,-1,-1,-1],"split_conditions":[8.69E1,1.21125E1,2.1877363E-1,1.9730982E0,2.92E0,3.01E0,1.0000666E0,-1.0265925E-1,-2.1792333E-1,3.5417843E-1,2.9634163E-2,-6.579613E-2,2.3213212E0,-1.404983E-1,1.6574913E0],"split_indices":[13,13,11,11,0,0,9,0,0,0,0,0,0,0,0],"split_type":[0,0,0,0,0,0,0,0,0,0,0,0,0,0,0],"sum_hessian":[1.735E3,1.645E3,9E1,8.33E2,8.12E2,2.8E1,6.2E1,5.19E2,3.14E2,1.6E2,6.52E2,7E0,2.1E1,4.4E1,1.8E1],"tree_param":{"num_deleted":"0","num_feature":"17","num_nodes":"15","size_leaf_vector":"1"}},{"base_weights":[8.253411E-1,-6.988736E-1,1.8621546E1,2.3928131E1,-1.3534987E0,2.506748E1,-5.568671E-1,3.71571E-1,2.042714E0,-1.3109605E-1,4.7499444E-2,3.5215482E-1,1.8963238E0,2.951861E-1,-2.689651E-1],"categories":[],"categories_nodes":[],"categories_segments":[],"categories_sizes":[],"default_left":[0,0,0,0,0,0,0,0,0,0,0,0,0,0,0],"id":40,"left_children":[1,3,5,7,9,11,13,-1,-1,-1,-1,-1,-1,-1,-1],"loss_changes":[4.8141992E4,2.6762828E4,1.7447023E4,8.970172E3,4.72025E3,2.1664773E4,1.7195833E3,0E0,0E0,0E0,0E0,0E0,0E0,0E0,0E0],"parents":[2147483647,0,0,1,1,2,2,3,3,4,4,5,5,6,6],"right_children":[2,4,6,8,10,12,14,-1,-1,-1,-1,-1,-1,-1,-1],"split_conditions":[6.3E1,5E0,8.83E2,1.455E2,1.4584616E1,6.9E2,4.105E0,3.71571E-1,2.042714E0,-1.3109605E-1,4.7499444E-2,3.5215482E-1,1.8963238E0,2.951861E-1,-2.689651E-1],"split_indices":[6,12,15,13,13,15,8,0,0,0,0,0,0,0,0],"split_type":[0,0,0,0,0,0,0,0,0,0,0,0,0,0,0],"sum_hessian":[1.76E3,1.63E3,1.3E2,3.3E1,1.597E3,9.5E1,3.5E1,2.4E1,9E0,1.029E3,5.68E2,4.6E1,4.9E1,1.4E1,2.1E1],"tree_param":{"num_deleted":"0","num_feature":"17","num_nodes":"15","size_leaf_vector":"1"}},{"base_weights":[6.109253E-1,2.0835474E1,-1.0392501E0,2.471824E1,7.343934E-1,-1.6466922E0,1.3522062E1,7.2022724E-1,1.8959E0,3.8252777E-1,-4.0118995E-1,-4.387815E-2,-3.221719E-1,-2.797731E-1,1.2393619E0],"categories":[],"categories_nodes":[],"categories_segments":[],"categories_sizes":[],"default_left":[0,0,0,0,0,0,0,0,0,0,0,0,0,0,0],"id":41,"left_children":[1,3,5,7,9,11,13,-1,-1,-1,-1,-1,-1,-1,-1],"loss_changes":[5.9288805E4,1.0276621E4,1.4781671E4,9.785055E3,2.5521997E3,5.805706E3,1.5816422E4,0E0,0E0,0E0,0E0,0E0,0E0,0E0,0E0],"parents":[2147483647,0,0,1,1,2,2,3,3,4,4,5,5,6,6],"right_children":[2,4,6,8,10,12,14,-1,-1,-1,-1,-1,-1,-1,-1],"split_conditions":[4.347826E-1,1.49E2,6.3E1,5.02E0,3.1914893E-1,3.5224445E1,7.23E2,7.2022724E-1,1.8959E0,3.8252777E-1,-4.0118995E-1,-4.387815E-2,-3.221719E-1,-2.797731E-1,1.2393619E0],"split_indices":[16,6,6,0,16,14,15,0,0,0,0,0,0,0,0],"split_type":[0,0,0,0,0,0,0,0,0,0,0,0,0,0,0],"sum_hessian":[1.76E3,1.24E2,1.636E3,1.02E2,2.2E1,1.579E3,5.7E1,6.9E1,3.3E1,1.3E1,9E0,1.371E3,2.08E2,2.3E1,3.4E1],"tree_param":{"num_deleted":"0","num_feature":"17","num_nodes":"15","size_leaf_vector":"1"}},{"base_weights":[8.4983987E-1,1.4575784E1,-1.1114233E0,1.759897E1,-9.727713E0,6.407381E0,-1.6051229E0,2.5337026E0,6.4088726E-1,-8.764561E-1,2.8222415E-1,3.745003E-2,1.2266268E0,3.9978237E-3,-1.4690816E-1],"categories":[],"categories_nodes":[],"categories_segments":[],"categories_sizes":[],"default_left":[0,0,0,0,0,0,0,0,0,0,0,0,0,0,0],"id":42,"left_children":[1,3,5,7,9,11,13,-1,-1,-1,-1,-1,-1,-1,-1],"loss_changes":[4.7810867E4,1.8023285E4,5.8861436E3,2.5290117E4,4.707215E3,9.866782E3,3.3044075E3,0E0,0E0,0E0,0E0,0E0,0E0,0E0,0E0],"parents":[2147483647,0,0,1,1,2,2,3,3,4,4,5,5,6,6],"right_children":[2,4,6,8,10,12,14,-1,-1,-1,-1,-1,-1,-1,-1],"split_conditions":[6.4102566E-1,1.06774895E2,3E0,2.4128686E-1,1.0038576E0,1.9730982E0,2.621951E0,2.5337026E0,6.4088726E-1,-8.764561E-1,2.8222415E-1,3.745003E-2,1.2266268E0,3.9978237E-3,-1.4690816E-1],"split_indices":[16,14,1,16,11,11,16,0,0,0,0,0,0,0,0],"split_type":[0,0,0,0,0,0,0,0,0,0,0,0,0,0,0],"sum_hessian":[1.76E3,2.12E2,1.548E3,1.91E2,2.1E1,8.8E1,1.46E3,1.2E1,1.79E2,1.3E1,8E0,7.5E1,1.3E1,6.49E2,8.11E2],"tree_param":{"num_deleted":"0","num_feature":"17","num_nodes":"15","size_leaf_vector":"1"}},{"base_weights":[4.3459827E-1,-1.453681E0,1.5043131E1,-2.0689692E0,1.2732964E0,3.7559486E1,1.074679E1,2.4686447E-1,-1.16467156E-1,1.6073458E-1,-4.1903478E-1,2.7262124E-1,2.2648273E0,1.0091441E-1,1.072021E0],"categories":[],"categories_nodes":[],"categories_segments":[],"categories_sizes":[],"default_left":[0,0,0,0,0,0,0,0,0,0,0,0,0,0,0],"id":43,"left_children":[1,3,5,7,9,11,13,-1,-1,-1,-1,-1,-1,-1,-1],"loss_changes":[4.9651117E4,2.7042441E3,1.589109E4,2.4974453E3,5.892026E3,4.733742E3,1.70215E4,0E0,0E0,0E0,0E0,0E0,0E0,0E0,0E0],"parents":[2147483647,0,0,1,1,2,2,3,3,4,4,5,5,6,6],"right_children":[2,4,6,8,10,12,14,-1,-1,-1,-1,-1,-1,-1,-1],"split_conditions":[5.4166668E1,2.7E1,4E0,2E0,1.9173245E0,7.65E1,5.29E0,2.4686447E-1,-1.16467156E-1,1.6073458E-1,-4.1903478E-1,2.7262124E-1,2.2648273E0,1.0091441E-1,1.072021E0],"split_indices":[13,6,12,1,9,13,0,0,0,0,0,0,0,0,0],"split_type":[0,0,0,0,0,0,0,0,0,0,0,0,0,0,0],"sum_hessian":[1.782E3,1.586E3,1.96E2,1.296E3,2.9E2,1.9E1,1.77E2,4E1,1.256E3,2.47E2,4.3E1,7E0,1.2E1,1.04E2,7.3E1],"tree_param":{"num_deleted":"0","num_feature":"17","num_nodes":"15","size_leaf_vector":"1"}},{"base_weights":[7.4627227E-1,2.7270235E1,1.7566673E-1,3.2806456E0,2.0222898E0,-7.3141587E-1,1.190297E1,-1.1953204E-2,2.435576E-1,8.876393E-2,-1.09947994E-1,-5.7935137E-1,1.0976433E0],"categories":[],"categories_nodes":[],"categories_segments":[],"categories_sizes":[],"default_left":[0,0,0,0,0,0,0,0,0,0,0,0,0],"id":44,"left_children":[1,3,5,7,-1,9,11,-1,-1,-1,-1,-1,-1],"loss_changes":[2.6588926E4,1.0367498E4,1.852219E4,1.4604642E2,0E0,5.9911523E3,3.2052783E4,0E0,0E0,0E0,0E0,0E0,0E0],"parents":[2147483647,0,0,1,1,2,2,3,3,5,5,6,6],"right_children":[2,4,6,8,-1,10,12,-1,-1,-1,-1,-1,-1],"split_conditions":[4E0,1.67E2,6.1E1,5.98E0,2.0222898E0,6E1,6.19E2,-1.1953204E-2,2.435576E-1,8.876393E-2,-1.09947994E-1,-5.7935137E-1,1.0976433E0],"split_indices":[12,15,6,0,0,12,15,0,0,0,0,0,0],"split_type":[0,0,0,0,0,0,0,0,0,0,0,0,0],"sum_hessian":[1.75E3,2.7E1,1.723E3,1.4E1,1.3E1,1.608E3,1.15E2,7E0,7E0,5.93E2,1.015E3,3.4E1,8.1E1],"tree_param":{"num_deleted":"0","num_feature":"17","num_nodes":"13","size_leaf_vector":"1"}},{"base_weights":[6.0156965E-1,-4.8479742E-1,2.0640623E1,-1.6849401E0,4.4574933E0,-1.10596955E-1,2.429939E1,-2.0074327E-1,-4.9294252E-2,3.881822E-1,-1.9357096E-1,1.4464754E0,-6.335301E-2],"categories":[],"categories_nodes":[],"categories_segments":[],"categories_sizes":[],"default_left":[0,0,0,0,0,0,0,0,0,0,0,0,0],"id":45,"left_children":[1,3,5,7,9,-1,11,-1,-1,-1,-1,-1,-1],"loss_changes":[3.937293E4,1.028311E4,8.313645E3,2.227583E3,9.635521E3,0E0,9.955258E3,0E0,0E0,0E0,0E0,0E0,0E0],"parents":[2147483647,0,0,1,1,2,2,3,3,4,4,6,6],"right_children":[2,4,6,8,10,-1,12,-1,-1,-1,-1,-1,-1],"split_conditions":[9.66E1,3.3055557E1,1.4E0,5.932099E0,9E0,-1.10596955E-1,7.84E2,-2.0074327E-1,-4.9294252E-2,3.881822E-1,-1.9357096E-1,1.4464754E0,-6.335301E-2],"split_indices":[13,13,0,13,2,0,15,0,0,0,0,0,0],"split_type":[0,0,0,0,0,0,0,0,0,0,0,0,0],"sum_hessian":[1.794E3,1.711E3,8.3E1,1.382E3,3.29E2,1.2E1,7.1E1,3.08E2,1.074E3,2.36E2,9.3E1,5.9E1,1.2E1],"tree_param":{"num_deleted":"0","num_feature":"17","num_nodes":"13","size_leaf_vector":"1"}},{"base_weights":[2.4848822E-1,-5.673554E-1,2.9079855E1,-2.2095675E0,1.9984803E0,3.681811E1,5.355448E0,-3.5844895E-1,-9.729355E-2,2.2707836E-1,-1.3892856E-1,2.2020109E0,3.588318E-1,6.178705E-1,-2.398095E-1],"categories":[],"categories_nodes":[],"categories_segments":[],"categories_sizes":[],"default_left":[0,0,0,0,0,0,0,0,0,0,0,0,0,0,0],"id":46,"left_children":[1,3,5,7,9,11,13,-1,-1,-1,-1,-1,-1,-1,-1],"loss_changes":[4.2739883E4,7.5023145E3,7.207086E3,1.278044E3,8.581535E3,4.545539E3,2.2987134E3,0E0,0E0,0E0,0E0,0E0,0E0,0E0,0E0],"parents":[2147483647,0,0,1,1,2,2,3,3,4,4,5,5,6,6],"right_children":[2,4,6,8,10,12,14,-1,-1,-1,-1,-1,-1,-1,-1],"split_conditions":[1.2933333E2,1.39375E1,1.75E2,2.3863637E0,5.2733335E0,4.05E0,2.0134228E-1,-3.5844895E-1,-9.729355E-2,2.2707836E-1,-1.3892856E-1,2.2020109E0,3.588318E-1,6.178705E-1,-2.398095E-1],"split_indices":[13,13,6,16,8,0,16,0,0,0,0,0,0,0,0],"split_type":[0,0,0,0,0,0,0,0,0,0,0,0,0,0,0],"sum_hessian":[1.8E3,1.76E3,4E1,1.074E3,6.86E2,2.6E1,1.4E1,4.1E1,1.033E3,4.48E2,2.38E2,1.7E1,9E0,7E0,7E0],"tree_param":{"num_deleted":"0","num_feature":"17","num_nodes":"15","size_leaf_vector":"1"}},{"base_weights":[8.0616385E-1,-2.6337522E-1,1.3985039E1,2.8009693E1,-7.929761E-1,-3.4066846E0,2.2768694E1,8.236801E-2,2.0842397E0,-2.2945736E-2,-9.339493E-1,3.525889E-1,-4.4151703E-1,1.8854803E0,-1.8203036E-1],"categories":[],"categories_nodes":[],"categories_segments":[],"categories_sizes":[],"default_left":[0,0,0,0,0,0,0,0,0,0,0,0,0,0,0],"id":47,"left_children":[1,3,5,7,9,11,13,-1,-1,-1,-1,-1,-1,-1,-1],"loss_changes":[2.5352168E4,2.5242457E4,2.1398844E4,1.0488604E4,9.772879E3,3.685761E3,3.727989E4,0E0,0E0,0E0,0E0,0E0,0E0,0E0,0E0],"parents":[2147483647,0,0,1,1,2,2,3,3,4,4,5,5,6,6],"right_children":[2,4,6,8,10,12,14,-1,-1,-1,-1,-1,-1,-1,-1],"split_conditions":[6.3E1,4E0,6.19E2,1.32E2,1.03944695E2,4E0,8.83E2,8.236801E-2,2.0842397E0,-2.2945736E-2,-9.339493E-1,3.525889E-1,-4.4151703E-1,1.8854803E0,-1.8203036E-1],"split_indices":[6,12,15,15,14,2,15,0,0,0,0,0,0,0,0],"split_type":[0,0,0,0,0,0,0,0,0,0,0,0,0,0,0],"sum_hessian":[1.786E3,1.661E3,1.25E2,2.1E1,1.64E3,4.4E1,8.1E1,1.1E1,1E1,1.62E3,2E1,1.4E1,3E1,4.9E1,3.2E1],"tree_param":{"num_deleted":"0","num_feature":"17","num_nodes":"15","size_leaf_vector":"1"}},{"base_weights":[2.3958963E-1,-1.2917033E0,1.8359259E1,-1.4920352E0,8.492663E0,2.269247E1,-8.340774E0,-4.475973E-2,-3.325824E-1,1.1298574E0,-2.0276935E-1,-1.4255057E-2,1.3569373E0,-7.421507E-1,1.104299E-1],"categories":[],"categories_nodes":[],"categories_segments":[],"categories_sizes":[],"default_left":[0,0,0,0,0,0,0,0,0,0,0,0,0,0,0],"id":48,"left_children":[1,3,5,7,9,11,13,-1,-1,-1,-1,-1,-1,-1,-1],"loss_changes":[5.02088E4,3.400044E3,1.8206137E4,5.0061006E3,7.1110205E3,1.2746043E4,2.1800015E3,0E0,0E0,0E0,0E0,0E0,0E0,0E0,0E0],"parents":[2147483647,0,0,1,1,2,2,3,3,4,4,5,5,6,6],"right_children":[2,4,6,8,10,12,14,-1,-1,-1,-1,-1,-1,-1,-1],"split_conditions":[7.6E1,2.7237492E0,1.81E2,5.453616E1,6E0,2.9466667E0,3.7287173E-1,-4.475973E-2,-3.325824E-1,1.1298574E0,-2.0276935E-1,-1.4255057E-2,1.3569373E0,-7.421507E-1,1.104299E-1],"split_indices":[13,11,6,14,1,8,9,0,0,0,0,0,0,0,0],"split_type":[0,0,0,0,0,0,0,0,0,0,0,0,0,0,0],"sum_hessian":[1.791E3,1.66E3,1.31E2,1.635E3,2.5E1,1.14E2,1.7E1,1.476E3,1.59E2,8E0,1.7E1,2E1,9.4E1,8E0,9E0],"tree_param":{"num_deleted":"0","num_feature":"17","num_nodes":"15","size_leaf_vector":"1"}},{"base_weights":[-8.911871E-2,-7.068766E-1,2.8271137E1,-4.341802E-1,-1.4248523E1,1.3316907E1,1.8501503E0,-6.623055E-2,2.2281253E-1,-1.1146187E0,3.6905345E-1,-1.2335024E-1,1.0089166E0],"categories":[],"categories_nodes":[],"categories_segments":[],"categories_sizes":[],"default_left":[0,0,0,0,0,0,0,0,0,0,0,0,0],"id":49,"left_children":[1,3,5,7,9,11,-1,-1,-1,-1,-1,-1,-1],"loss_changes":[3.2050508E4,6.5443325E3,1.6439648E2,7.7404937E3,7.735048E3,3.7469814E3,0E0,0E0,0E0,0E0,0E0,0E0,0E0],"parents":[2147483647,0,0,1,1,2,2,3,3,4,4,5,5],"right_children":[2,4,6,8,10,12,-1,-1,-1,-1,-1,-1,-1],"split_conditions":[1.5475E2,1.03944695E2,1.9633333E2,4.2E1,5.8E1,3.2E1,1.8501503E0,-6.623055E-2,2.2281253E-1,-1.1146187E0,3.6905345E-1,-1.2335024E-1,1.0089166E0],"split_indices":[13,14,13,13,6,6,0,0,0,0,0,0,0],"split_type":[0,0,0,0,0,0,0,0,0,0,0,0,0],"sum_hessian":[1.808E3,1.779E3,2.9E1,1.754E3,2.5E1,2E1,9E0,1.49E3,2.64E2,1.8E1,7E0,8E0,1.2E1],"tree_param":{"num_deleted":"0","num_feature":"17","num_nodes":"13","size_leaf_vector":"1"}},{"base_weights":[-1.671904E-1,-8.821468E-1,2.4412231E1,1.5592352E0,-1.8244101E0,2.7994034E1,3.9048146E-2,1.3776928E-1,-4.1334325E-1,-6.235216E-2,-2.6913974E-1,1.7162294E0,3.030469E-1],"categories":[],"categories_nodes":[],"categories_segments":[],"categories_sizes":[],"default_left":[0,0,0,0,0,0,0,0,0,0,0,0,0],"id":50,"left_children":[1,3,5,7,9,11,-1,-1,-1,-1,-1,-1,-1],"loss_changes":[3.1706316E4,4.0564934E3,4.0978535E3,6.0222017E3,2.5379048E3,4.0285469E3,0E0,0E0,0E0,0E0,0E0,0E0,0E0],"parents":[2147483647,0,0,1,1,2,2,3,3,4,4,5,5],"right_children":[2,4,6,8,10,12,-1,-1,-1,-1,-1,-1,-1],"split_conditions":[1.1525E2,1.1E1,4E0,8.11665E1,3.1659649E1,6.19E2,3.9048146E-2,1.3776928E-1,-4.1334325E-1,-6.235216E-2,-2.6913974E-1,1.7162294E0,3.030469E-1],"split_indices":[13,1,1,14,14,15,0,0,0,0,0,0,0],"split_type":[0,0,0,0,0,0,0,0,0,0,0,0,0],"sum_hessian":[1.782E3,1.741E3,4.1E1,4.83E2,1.258E3,3.4E1,7E0,4.37E2,4.6E1,1.094E3,1.64E2,2.2E1,1.2E1],"tree_param":{"num_deleted":"0","num_feature":"17","num_nodes":"13","size_leaf_vector":"1"}},{"base_weights":[7.811859E-1,-1.8762329E-1,1.4606808E1,-6.148952E-1,8.498643E0,6.087062E0,3.2321766E1,1.4490704E-1,-5.732233E-2,-4.5070227E-2,1.3642406E0,1.3021452E0,-1.7416221E-1,1.5210319E-1,2.120639E0],"categories":[],"categories_nodes":[],"categories_segments":[],"categories_sizes":[],"default_left":[0,0,0,0,0,0,0,0,0,0,0,0,0,0,0],"id":51,"left_children":[1,3,5,7,9,11,13,-1,-1,-1,-1,-1,-1,-1,-1],"loss_changes":[2.4137451E4,6.3318643E3,1.5841549E4,3.0620645E3,1.4373482E4,1.8477848E4,9.345949E3,0E0,0E0,0E0,0E0,0E0,0E0,0E0,0E0],"parents":[2147483647,0,0,1,1,2,2,3,3,4,4,5,5,6,6],"right_children":[2,4,6,8,10,12,14,-1,-1,-1,-1,-1,-1,-1,-1],"split_conditions":[7.95E1,6E1,6E0,6E0,2.1E1,5E0,5.676978E1,1.4490704E-1,-5.732233E-2,-4.5070227E-2,1.3642406E0,1.3021452E0,-1.7416221E-1,1.5210319E-1,2.120639E0],"split_indices":[13,6,1,1,12,12,14,0,0,0,0,0,0,0,0],"split_type":[0,0,0,0,0,0,0,0,0,0,0,0,0,0,0],"sum_hessian":[1.79E3,1.682E3,1.08E2,1.612E3,7E1,8.2E1,2.6E1,2.06E2,1.406E3,5.3E1,1.7E1,2.1E1,6.1E1,1E1,1.6E1],"tree_param":{"num_deleted":"0","num_feature":"17","num_nodes":"15","size_leaf_vector":"1"}},{"base_weights":[1.1334417E-1,4.525044E0,-1.4702517E0,1.0152022E0,1.1988797E1,-1.7930022E0,6.4522157E0,1.4627142E-1,-7.31702E-1,1.1594174E-1,1.3989471E0,-5.5559136E-2,-3.060263E-1,5.209119E-1,-6.860204E-2],"categories":[],"categories_nodes":[],"categories_segments":[],"categories_sizes":[],"default_left":[0,0,0,0,0,0,0,0,0,0,0,0,0,0,0],"id":52,"left_children":[1,3,5,7,9,11,13,-1,-1,-1,-1,-1,-1,-1,-1],"loss_changes":[1.2565138E4,1.2321542E4,3.5010845E3,1.0412451E4,2.2699154E4,3.7086733E3,1.8187161E3,0E0,0E0,0E0,0E0,0E0,0E0,0E0,0E0],"parents":[2147483647,0,0,1,1,2,2,3,3,4,4,5,5,6,6],"right_children":[2,4,6,8,10,12,14,-1,-1,-1,-1,-1,-1,-1,-1],"split_conditions":[2.3E1,1.1113955E0,4.3E1,1.29E2,5.676978E1,1.8631859E1,7E0,1.4627142E-1,-7.31702E-1,1.1594174E-1,1.3989471E0,-5.5559136E-2,-3.060263E-1,5.209119E-1,-6.860204E-2],"split_indices":[12,9,6,6,14,14,2,0,0,0,0,0,0,0,0],"split_type":[0,0,0,0,0,0,0,0,0,0,0,0,0,0,0],"sum_hessian":[1.779E3,4.65E2,1.314E3,3.24E2,1.41E2,1.27E3,4.4E1,2.96E2,2.8E1,9.5E1,4.6E1,1.108E3,1.62E2,2.7E1,1.7E1],"tree_param":{"num_deleted":"0","num_feature":"17","num_nodes":"15","size_leaf_vector":"1"}},{"base_weights":[1.8406337E-2,-6.256794E-1,1.8651802E1,-1.2267457E0,3.6734354E0,2.9751736E1,-1.0856732E1,-4.1241013E-2,-2.5552502E-1,-9.757217E-2,5.97635E-1,-1.8586044E-1,1.9328533E0,-7.9144955E-1,2.5062546E-2],"categories":[],"categories_nodes":[],"categories_segments":[],"categories_sizes":[],"default_left":[0,0,0,0,0,0,0,0,0,0,0,0,0,0,0],"id":53,"left_children":[1,3,5,7,9,11,13,-1,-1,-1,-1,-1,-1,-1,-1],"loss_changes":[2.1911613E4,4.605894E3,2.3210361E4,2.3866736E3,1.0432149E4,1.5445758E4,1.4348921E3,0E0,0E0,0E0,0E0,0E0,0E0,0E0,0E0],"parents":[2147483647,0,0,1,1,2,2,3,3,4,4,5,5,6,6],"right_children":[2,4,6,8,10,12,14,-1,-1,-1,-1,-1,-1,-1,-1],"split_conditions":[1.144E2,4.85E1,1.4021999E2,4.8644115E1,6.9255567E-1,2.9233334E0,6E0,-4.1241013E-2,-2.5552502E-1,-9.757217E-2,5.97635E-1,-1.8586044E-1,1.9328533E0,-7.9144955E-1,2.5062546E-2],"split_indices":[13,13,14,14,9,8,12,0,0,0,0,0,0,0,0],"split_type":[0,0,0,0,0,0,0,0,0,0,0,0,0,0,0],"sum_hessian":[1.806E3,1.755E3,5.1E1,1.546E3,2.09E2,3.7E1,1.4E1,1.412E3,1.34E2,1.29E2,8E1,9E0,2.8E1,7E0,7E0],"tree_param":{"num_deleted":"0","num_feature":"17","num_nodes":"15","size_leaf_vector":"1"}},{"base_weights":[1.9914794E-1,1.7413826E1,-5.912996E-1,2.2867905E1,-4.612979E0,4.957123E0,-1.1949342E0,2.8068158E-1,1.346063E0,-3.50198E-1,2.4546552E-2,1.4197919E-1,1.1234303E0,-5.055817E-2,-7.428793E-1],"categories":[],"categories_nodes":[],"categories_segments":[],"categories_sizes":[],"default_left":[0,0,0,0,0,0,0,0,0,0,0,0,0,0,0],"id":54,"left_children":[1,3,5,7,9,11,13,-1,-1,-1,-1,-1,-1,-1,-1],"loss_changes":[2.4487418E4,1.05458125E4,5.829903E3,3.0343633E3,3.2733023E2,5.7026265E3,3.7714714E3,0E0,0E0,0E0,0E0,0E0,0E0,0E0,0E0],"parents":[2147483647,0,0,1,1,2,2,3,3,4,4,5,5,6,6],"right_children":[2,4,6,8,10,12,14,-1,-1,-1,-1,-1,-1,-1,-1],"split_conditions":[3.3975086E-1,1.4021999E2,7.6043844E-1,2E0,6E0,1.0000666E0,9.66E1,2.8068158E-1,1.346063E0,-3.50198E-1,2.4546552E-2,1.4197919E-1,1.1234303E0,-5.055817E-2,-7.428793E-1],"split_indices":[16,14,11,8,12,9,13,0,0,0,0,0,0,0,0],"split_type":[0,0,0,0,0,0,0,0,0,0,0,0,0,0,0],"sum_hessian":[1.782E3,6.9E1,1.713E3,5.5E1,1.4E1,1.61E2,1.552E3,1.5E1,4E1,7E0,7E0,1.54E2,7E0,1.542E3,1E1],"tree_param":{"num_deleted":"0","num_feature":"17","num_nodes":"15","size_leaf_vector":"1"}},{"base_weights":[2.8719306E-1,2.5379286E1,-2.408823E-1,3.388718E1,8.1443965E-2,3.4979022E0,-1.0673796E0,2.241248E0,2.0613186E-1,7.748019E-2,9.2649645E-1,-6.612795E-2,4.1308236E-1],"categories":[],"categories_nodes":[],"categories_segments":[],"categories_sizes":[],"default_left":[0,0,0,0,0,0,0,0,0,0,0,0,0],"id":55,"left_children":[1,3,5,7,-1,9,11,-1,-1,-1,-1,-1,-1],"loss_changes":[2.3143787E4,6.722039E3,5.339915E3,6.616043E3,0E0,8.87945E3,3.4729482E3,0E0,0E0,0E0,0E0,0E0,0E0],"parents":[2147483647,0,0,1,1,2,2,3,3,5,5,6,6],"right_children":[2,4,6,8,-1,10,12,-1,-1,-1,-1,-1,-1],"split_conditions":[2.8037384E-1,1.13E2,9.288326E-1,6.2E2,8.1443965E-2,1.0250366E0,9.6E1,2.241248E0,2.0613186E-1,7.748019E-2,9.2649645E-1,-6.612795E-2,4.1308236E-1],"split_indices":[16,6,11,15,0,9,6,0,0,0,0,0,0],"split_type":[0,0,0,0,0,0,0,0,0,0,0,0,0],"sum_hessian":[1.732E3,2.6E1,1.706E3,1.6E1,1E1,3.03E2,1.403E3,8E0,8E0,2.78E2,2.5E1,1.374E3,2.9E1],"tree_param":{"num_deleted":"0","num_feature":"17","num_nodes":"13","size_leaf_vector":"1"}},{"base_weights":[5.8359087E-1,1.8614574E1,-1.5934716E-1,2.3623796E1,-2.2805491E-1,4.891479E0,-1.0691345E0,1.20346025E-1,1.7215426E0,5.00144E-1,-5.6974877E-2,-3.3807468E-2,-2.4756925E-1],"categories":[],"categories_nodes":[],"categories_segments":[],"categories_sizes":[],"default_left":[0,0,0,0,0,0,0,0,0,0,0,0,0],"id":56,"left_children":[1,3,5,7,-1,9,11,-1,-1,-1,-1,-1,-1],"loss_changes":[2.4035305E4,9.32023E3,8.0065107E3,1.292843E4,0E0,8.313984E3,2.2168232E3,0E0,0E0,0E0,0E0,0E0,0E0],"parents":[2147483647,0,0,1,1,2,2,3,3,5,5,6,6],"right_children":[2,4,6,8,-1,10,12,-1,-1,-1,-1,-1,-1],"split_conditions":[3.3975086E-1,1.4021999E2,8.108108E-1,3.08E0,-2.2805491E-1,5.045E0,4.1556187E1,1.20346025E-1,1.7215426E0,5.00144E-1,-5.6974877E-2,-3.3807468E-2,-2.4756925E-1],"split_indices":[16,14,16,0,0,8,14,0,0,0,0,0,0],"split_type":[0,0,0,0,0,0,0,0,0,0,0,0,0],"sum_hessian":[1.782E3,6.1E1,1.721E3,5E1,1.1E1,2.56E2,1.465E3,2.1E1,2.9E1,1.35E2,1.21E2,1.341E3,1.24E2],"tree_param":{"num_deleted":"0","num_feature":"17","num_nodes":"13","size_leaf_vector":"1"}},{"base_weights":[-7.896078E-2,3.0664814E1,-6.163634E-1,2.0968301E0,-3.8673874E-2,5.031099E0,-9.80631E-1,8.65924E-1,-1.8442278E-1,3.950099E-2,-8.941433E-2],"categories":[],"categories_nodes":[],"categories_segments":[],"categories_sizes":[],"default_left":[0,0,0,0,0,0,0,0,0,0,0],"id":57,"left_children":[1,3,5,-1,-1,7,9,-1,-1,-1,-1],"loss_changes":[2.9812266E4,1.1310119E4,3.6946328E3,0E0,0E0,1.2317234E4,2.4066548E3,0E0,0E0,0E0,0E0],"parents":[2147483647,0,0,1,1,2,2,5,5,6,6],"right_children":[2,4,6,-1,-1,8,10,-1,-1,-1,-1],"split_conditions":[2.4232633E-1,9.702611E1,4.391892E-1,2.0968301E0,-3.8673874E-2,2E0,8E0,8.65924E-1,-1.8442278E-1,3.950099E-2,-8.941433E-2],"split_indices":[16,14,16,0,0,4,7,0,0,0,0],"split_type":[0,0,0,0,0,0,0,0,0,0,0],"sum_hessian":[1.783E3,2.1E1,1.762E3,1.3E1,8E0,9.9E1,1.663E3,3.7E1,6.2E1,5.21E2,1.142E3],"tree_param":{"num_deleted":"0","num_feature":"17","num_nodes":"11","size_leaf_vector":"1"}},{"base_weights":[-1.4826773E-1,1.8939089E1,-5.344698E-1,1.4658985E0,-2.5989158E-2,3.4344587E0,-9.8165756E-1,-2.3740552E-1,4.2445546E-1,2.4823077E-1,-6.834178E-2],"categories":[],"categories_nodes":[],"categories_segments":[],"categories_sizes":[],"default_left":[0,0,0,0,0,0,0,0,0,0,0],"id":58,"left_children":[1,3,5,-1,-1,7,9,-1,-1,-1,-1],"loss_changes":[1.300867E4,7.221324E3,3.0970918E3,0E0,0E0,7.723835E3,3.638514E3,0E0,0E0,0E0,0E0],"parents":[2147483647,0,0,1,1,2,2,5,5,6,6],"right_children":[2,4,6,-1,-1,8,10,-1,-1,-1,-1],"split_conditions":[4E0,5.1466665E0,1.3E1,1.4658985E0,-2.5989158E-2,3E0,4E0,-2.3740552E-1,4.2445546E-1,2.4823077E-1,-6.834178E-2],"split_indices":[12,8,12,0,0,1,1,0,0,0,0],"split_type":[0,0,0,0,0,0,0,0,0,0,0],"sum_hessian":[1.741E3,2.5E1,1.716E3,1.3E1,1.2E1,1.67E2,1.549E3,6.4E1,1.03E2,8.7E1,1.462E3],"tree_param":{"num_deleted":"0","num_feature":"17","num_nodes":"11","size_leaf_vector":"1"}},{"base_weights":[4.1688453E-2,-3.4099147E-1,1.7039928E0,-7.869934E-1,6.007441E0,-1.206473E-2,-6.0296434E-1,9.4159836E-1,-1.9280414E-1],"categories":[],"categories_nodes":[],"categories_segments":[],"categories_sizes":[],"default_left":[0,0,0,0,0,0,0,0,0],"id":59,"left_children":[1,3,-1,5,7,-1,-1,-1,-1],"loss_changes":[2.3432594E4,5.087141E3,0E0,1.0255714E4,1.5652738E4,0E0,0E0,0E0,0E0],"parents":[2147483647,0,0,1,1,3,3,4,4],"right_children":[2,4,-1,6,8,-1,-1,-1,-1],"split_conditions":[2.235E2,6.9E1,1.7039928E0,7.3271286E1,3.9166667E0,-1.206473E-2,-6.0296434E-1,9.4159836E-1,-1.9280414E-1],"split_indices":[13,6,0,14,8,0,0,0,0],"split_type":[0,0,0,0,0,0,0,0,0],"sum_hessian":[1.78E3,1.77E3,1E1,1.662E3,1.08E2,1.595E3,6.7E1,4.3E1,6.5E1],"tree_param":{"num_deleted":"0","num_feature":"17","num_nodes":"9","size_leaf_vector":"1"}},{"base_weights":[6.0559136E-1,9.046341E0,-3.5539973E-1,4.718207E-1,2.0858135E1,6.1705537E0,-1.0152135E0,4.6759582E-1,-6.51385E-1,2.589278E0,3.3527443E-1,7.528066E-2,8.6392254E-1,-7.276829E-2,1.0936469E-1],"categories":[],"categories_nodes":[],"categories_segments":[],"categories_sizes":[],"default_left":[0,0,0,0,0,0,0,0,0,0,0,0,0,0,0],"id":60,"left_children":[1,3,5,7,9,11,13,-1,-1,-1,-1,-1,-1,-1,-1],"loss_changes":[1.4762695E4,1.8739543E4,7.124291E3,1.5363792E4,3.0667922E4,7.615952E3,2.1433936E3,0E0,0E0,0E0,0E0,0E0,0E0,0E0,0E0],"parents":[2147483647,0,0,1,1,2,2,3,3,4,4,5,5,6,6],"right_children":[2,4,6,8,10,12,14,-1,-1,-1,-1,-1,-1,-1,-1],"split_conditions":[5.63204E-1,5.11E0,4E0,4.065E0,5.366667E0,3.1659649E1,4E0,4.6759582E-1,-6.51385E-1,2.589278E0,3.3527443E-1,7.528066E-2,8.6392254E-1,-7.276829E-2,1.0936469E-1],"split_indices":[16,0,1,10,8,14,4,0,0,0,0,0,0,0,0],"split_type":[0,0,0,0,0,0,0,0,0,0,0,0,0,0,0],"sum_hessian":[1.806E3,1.76E2,1.63E3,1.08E2,6.8E1,1.42E2,1.488E3,6.7E1,4.1E1,1.3E1,5.5E1,1.08E2,3.4E1,1.313E3,1.75E2],"tree_param":{"num_deleted":"0","num_feature":"17","num_nodes":"15","size_leaf_vector":"1"}},{"base_weights":[5.7810855E-1,-2.3841976E-1,1.0695276E1,6.260311E0,-8.0566716E-1,3.0123182E1,-5.697256E-1,5.6918406E-1,-2.1548104E-1,-2.9886624E-2,-6.806379E-1,2.0265906E-1,2.4113882E0,7.6688415E-1,-2.1447492E-1],"categories":[],"categories_nodes":[],"categories_segments":[],"categories_sizes":[],"default_left":[0,0,0,0,0,0,0,0,0,0,0,0,0,0,0],"id":61,"left_children":[1,3,5,7,9,11,13,-1,-1,-1,-1,-1,-1,-1,-1],"loss_changes":[1.471358E4,6.1513555E3,2.9279684E4,7.7472563E3,3.995601E3,2.1172055E4,6.219962E3,0E0,0E0,0E0,0E0,0E0,0E0,0E0,0E0],"parents":[2147483647,0,0,1,1,2,2,3,3,4,4,5,5,6,6],"right_children":[2,4,6,8,10,12,14,-1,-1,-1,-1,-1,-1,-1,-1],"split_conditions":[6.2E1,3E0,3.89E0,7.77E2,1.03944695E2,2.9E0,6.4E1,5.6918406E-1,-2.1548104E-1,-2.9886624E-2,-6.806379E-1,2.0265906E-1,2.4113882E0,7.6688415E-1,-2.1447492E-1],"split_indices":[6,1,8,15,14,8,6,0,0,0,0,0,0,0,0],"split_type":[0,0,0,0,0,0,0,0,0,0,0,0,0,0,0],"sum_hessian":[1.768E3,1.645E3,1.23E2,1.24E2,1.521E3,3.9E1,8.4E1,8.3E1,4.1E1,1.507E3,1.4E1,2.1E1,1.8E1,1E1,7.4E1],"tree_param":{"num_deleted":"0","num_feature":"17","num_nodes":"15","size_leaf_vector":"1"}},{"base_weights":[1.7191316E-1,-2.8903693E-1,1.7201063E1,-1.9034053E0,1.0523334E0,2.7414328E1,2.756586E0,-3.9593134E-2,-1.2573415E-1,-4.5708306E-2,1.353819E-1,1.697653E0,4.07437E-1,5.676059E-1,-4.878737E-1],"categories":[],"categories_nodes":[],"categories_segments":[],"categories_sizes":[],"default_left":[0,0,0,0,0,0,0,0,0,0,0,0,0,0,0],"id":62,"left_children":[1,3,5,7,9,11,13,-1,-1,-1,-1,-1,-1,-1,-1],"loss_changes":[1.4296889E4,3.8680715E3,6.325213E3,5.3041724E2,3.2050576E3,6.3408984E2,4.442211E3,0E0,0E0,0E0,0E0,0E0,0E0,0E0,0E0],"parents":[2147483647,0,0,1,1,2,2,3,3,4,4,5,5,6,6],"right_children":[2,4,6,8,10,12,14,-1,-1,-1,-1,-1,-1,-1,-1],"split_conditions":[1.2933333E2,1.1648149E1,5.01E2,1.5412419E0,6E0,4.636667E0,3.34E0,-3.9593134E-2,-1.2573415E-1,-4.5708306E-2,1.353819E-1,1.697653E0,4.07437E-1,5.676059E-1,-4.878737E-1],"split_indices":[13,13,15,11,2,8,8,0,0,0,0,0,0,0,0],"split_type":[0,0,0,0,0,0,0,0,0,0,0,0,0,0,0],"sum_hessian":[1.805E3,1.767E3,3.8E1,8E2,9.67E2,1.7E1,2.1E1,2.92E2,5.08E2,4.44E2,5.23E2,7E0,1E1,1.3E1,8E0],"tree_param":{"num_deleted":"0","num_feature":"17","num_nodes":"15","size_leaf_vector":"1"}},{"base_weights":[-2.2795007E-2,1.0006303E1,-5.2948666E-1,3.542603E0,1.7819782E1,-9.0333253E-1,5.8821154E0,5.129386E-1,-7.341406E-1,1.4180843E0,9.1813505E-2,-2.3445219E-2,-6.50279E-1,1.2049886E0,-2.52808E-1],"categories":[],"categories_nodes":[],"categories_segments":[],"categories_sizes":[],"default_left":[0,0,0,0,0,0,0,0,0,0,0,0,0,0,0],"id":63,"left_children":[1,3,5,7,9,11,13,-1,-1,-1,-1,-1,-1,-1,-1],"loss_changes":[8.981363E3,3.6613408E3,4.0847568E3,8.728124E3,5.5447803E3,8.340457E3,1.995007E4,0E0,0E0,0E0,0E0,0E0,0E0,0E0,0E0],"parents":[2147483647,0,0,1,1,2,2,3,3,4,4,5,5,6,6],"right_children":[2,4,6,8,10,12,14,-1,-1,-1,-1,-1,-1,-1,-1],"split_conditions":[6E0,1.5044379E-1,6.7E1,4.0741646E1,2.3E1,7.79487E1,3.96E0,5.129386E-1,-7.341406E-1,1.4180843E0,9.1813505E-2,-2.3445219E-2,-6.50279E-1,1.2049886E0,-2.52808E-1],"split_indices":[12,9,6,14,7,14,8,0,0,0,0,0,0,0,0],"split_type":[0,0,0,0,0,0,0,0,0,0,0,0,0,0,0],"sum_hessian":[1.747E3,7.5E1,1.672E3,4.9E1,2.6E1,1.588E3,8.4E1,3.9E1,1E1,1.1E1,1.5E1,1.543E3,4.5E1,2.7E1,5.7E1],"tree_param":{"num_deleted":"0","num_feature":"17","num_nodes":"15","size_leaf_vector":"1"}},{"base_weights":[3.841347E-1,-1.1940504E-1,2.030132E1,-1.0036191E0,2.726914E0,1.6488498E0,-3.6817226E-1,-1.3390401E-2,-2.6063526E-1,-2.0431677E-2,5.4492164E-1],"categories":[],"categories_nodes":[],"categories_segments":[],"categories_sizes":[],"default_left":[0,0,0,0,0,0,0,0,0,0,0],"id":64,"left_children":[1,3,5,7,9,-1,-1,-1,-1,-1,-1],"loss_changes":[1.789629E4,4.426638E3,1.7857963E4,4.1391855E3,1.0729092E4,0E0,0E0,0E0,0E0,0E0,0E0],"parents":[2147483647,0,0,1,1,2,2,3,3,4,4],"right_children":[2,4,6,8,10,-1,-1,-1,-1,-1,-1],"split_conditions":[1.455E2,2.7E1,1.75E2,3.6527386E1,4.8644115E1,1.6488498E0,-3.6817226E-1,-1.3390401E-2,-2.6063526E-1,-2.0431677E-2,5.4492164E-1],"split_indices":[13,6,6,14,14,0,0,0,0,0,0],"split_type":[0,0,0,0,0,0,0,0,0,0,0],"sum_hessian":[1.772E3,1.738E3,3.4E1,1.331E3,4.07E2,2.2E1,1.2E1,1.142E3,1.89E2,3.01E2,1.06E2],"tree_param":{"num_deleted":"0","num_feature":"17","num_nodes":"11","size_leaf_vector":"1"}},{"base_weights":[6.678196E-1,-8.463864E-2,9.114487E0,7.521492E0,-7.212324E-1,2.4418587E1,2.151635E0,-1.5120575E-1,6.0457385E-1,-1.3039562E-1,5.7044037E-2,-1.655932E-1,2.0430257E0,7.8735846E-1,-7.870418E-2],"categories":[],"categories_nodes":[],"categories_segments":[],"categories_sizes":[],"default_left":[0,0,0,0,0,0,0,0,0,0,0,0,0,0,0],"id":65,"left_children":[1,3,5,7,9,11,13,-1,-1,-1,-1,-1,-1,-1,-1],"loss_changes":[1.1422758E4,8.087083E3,1.5138681E4,6.5826816E3,5.4401133E3,2.1871012E4,5.921166E3,0E0,0E0,0E0,0E0,0E0,0E0,0E0,0E0],"parents":[2147483647,0,0,1,1,2,2,3,3,4,4,5,5,6,6],"right_children":[2,4,6,8,10,12,14,-1,-1,-1,-1,-1,-1,-1,-1],"split_conditions":[6.2E1,3E0,3.6066666E0,2E0,8.83E2,2.4766667E0,6.4E1,-1.5120575E-1,6.0457385E-1,-1.3039562E-1,5.7044037E-2,-1.655932E-1,2.0430257E0,7.8735846E-1,-7.870418E-2],"split_indices":[6,1,8,2,15,8,6,0,0,0,0,0,0,0,0],"split_type":[0,0,0,0,0,0,0,0,0,0,0,0,0,0,0],"sum_hessian":[1.786E3,1.649E3,1.37E2,1.19E2,1.53E3,3.5E1,1.02E2,3.7E1,8.2E1,7.58E2,7.72E2,1.6E1,1.9E1,1.5E1,8.7E1],"tree_param":{"num_deleted":"0","num_feature":"17","num_nodes":"15","size_leaf_vector":"1"}},{"base_weights":[4.8400283E-1,7.7035303E0,-4.287185E-1,3.9102871E0,2.3144905E1,7.810575E0,-8.7622887E-1,3.925349E-1,-7.369781E-1,-1.2482891E-1,1.9571546E0,-2.187403E-2,1.0034517E0,-3.3433948E-2,-3.6567593E-1],"categories":[],"categories_nodes":[],"categories_segments":[],"categories_sizes":[],"default_left":[0,0,0,0,0,0,0,0,0,0,0,0,0,0,0],"id":66,"left_children":[1,3,5,7,9,11,13,-1,-1,-1,-1,-1,-1,-1,-1],"loss_changes":[1.1920407E4,1.0984993E4,6.008399E3,1.4017502E4,1.6565861E4,8.581104E3,2.0045387E3,0E0,0E0,0E0,0E0,0E0,0E0,0E0,0E0],"parents":[2147483647,0,0,1,1,2,2,3,3,4,4,5,5,6,6],"right_children":[2,4,6,8,10,12,14,-1,-1,-1,-1,-1,-1,-1,-1],"split_conditions":[1.3E1,7E0,3E0,7.84E2,5.453616E1,5E0,7.3E1,3.925349E-1,-7.369781E-1,-1.2482891E-1,1.9571546E0,-2.187403E-2,1.0034517E0,-3.3433948E-2,-3.6567593E-1],"split_indices":[12,1,1,15,14,2,6,0,0,0,0,0,0,0,0],"split_type":[0,0,0,0,0,0,0,0,0,0,0,0,0,0,0],"sum_hessian":[1.794E3,1.93E2,1.601E3,1.65E2,2.8E1,7.4E1,1.527E3,1.41E2,2.4E1,1.4E1,1.4E1,5E1,2.4E1,1.49E3,3.7E1],"tree_param":{"num_deleted":"0","num_feature":"17","num_nodes":"15","size_leaf_vector":"1"}},{"base_weights":[4.9994567E-1,1.1059754E1,-2.799046E-1,9.103273E-2,1.6599104E1,4.4466949E-1,-1.7854894E0,-3.4991106E-1,8.6851513E-1,1.0195783E0,-3.453691E-1,5.0681155E-2,-1.3888353E-1,-1.08630516E-1,5.0951254E-2],"categories":[],"categories_nodes":[],"categories_segments":[],"categories_sizes":[],"default_left":[0,0,0,0,0,0,0,0,0,0,0,0,0,0,0],"id":67,"left_children":[1,3,5,7,9,11,13,-1,-1,-1,-1,-1,-1,-1,-1],"loss_changes":[1.4969481E4,7.579671E3,1.8614053E3,7.585566E3,8.807896E3,2.1456707E3,6.23621E2,0E0,0E0,0E0,0E0,0E0,0E0,0E0,0E0],"parents":[2147483647,0,0,1,1,2,2,3,3,4,4,5,5,6,6],"right_children":[2,4,6,8,10,12,14,-1,-1,-1,-1,-1,-1,-1,-1],"split_conditions":[4.248366E-1,5E0,4.57523E0,1.0000666E0,1.2185784E2,5.453616E1,4E0,-3.4991106E-1,8.6851513E-1,1.0195783E0,-3.453691E-1,5.0681155E-2,-1.3888353E-1,-1.08630516E-1,5.0951254E-2],"split_indices":[16,2,16,9,14,14,4,0,0,0,0,0,0,0,0],"split_type":[0,0,0,0,0,0,0,0,0,0,0,0,0,0,0],"sum_hessian":[1.804E3,1.15E2,1.689E3,4.2E1,7.3E1,1.145E3,5.44E2,3.4E1,8E0,6.4E1,9E0,9.79E2,1.66E2,4.8E2,6.4E1],"tree_param":{"num_deleted":"0","num_feature":"17","num_nodes":"15","size_leaf_vector":"1"}},{"base_weights":[9.4741017E-1,1.330267E1,1.8543561E-1,-3.311323E0,2.84314E1,5.363741E0,-2.1330091E-1,6.709251E-1,-4.7321233E-1,1.547862E0,2.2130457E-1,1.5228882E-2,8.299937E-1,-6.526945E-2,4.6853255E-2],"categories":[],"categories_nodes":[],"categories_segments":[],"categories_sizes":[],"default_left":[0,0,0,0,0,0,0,0,0,0,0,0,0,0,0],"id":68,"left_children":[1,3,5,7,9,11,13,-1,-1,-1,-1,-1,-1,-1,-1],"loss_changes":[1.7015248E4,2.7333309E4,3.552589E3,7.3432236E3,2.0249336E3,6.94126E3,2.0248302E3,0E0,0E0,0E0,0E0,0E0,0E0,0E0,0E0],"parents":[2147483647,0,0,1,1,2,2,3,3,4,4,5,5,6,6],"right_children":[2,4,6,8,10,12,14,-1,-1,-1,-1,-1,-1,-1,-1],"split_conditions":[3.8338658E-1,6E0,3E0,2.4128686E-1,1.1101576E2,3.2648754E1,9.17E2,6.709251E-1,-4.7321233E-1,1.547862E0,2.2130457E-1,1.5228882E-2,8.299937E-1,-6.526945E-2,4.6853255E-2],"split_indices":[16,2,1,16,14,14,15,0,0,0,0,0,0,0,0],"split_type":[0,0,0,0,0,0,0,0,0,0,0,0,0,0,0],"sum_hessian":[1.8E3,9.5E1,1.705E3,4.9E1,4.6E1,1.13E2,1.592E3,1E1,3.9E1,3.9E1,7E0,8.5E1,2.8E1,8.16E2,7.76E2],"tree_param":{"num_deleted":"0","num_feature":"17","num_nodes":"15","size_leaf_vector":"1"}},{"base_weights":[4.6031713E-1,1.6105005E-1,1.5788394E0,-8.0567974E-1,3.2979836E0,-1.2768309E-1,-1.3544067E-2,-4.056735E-2,5.999698E-1],"categories":[],"categories_nodes":[],"categories_segments":[],"categories_sizes":[],"default_left":[0,0,0,0,0,0,0,0,0],"id":69,"left_children":[1,3,-1,5,7,-1,-1,-1,-1],"loss_changes":[1.6617549E4,5.4336636E3,0E0,1.27469E3,1.5186914E4,0E0,0E0,0E0,0E0],"parents":[2147483647,0,0,1,1,3,3,4,4],"right_children":[2,4,-1,6,8,-1,-1,-1,-1],"split_conditions":[2.235E2,3.3055557E1,1.5788394E0,5.932099E0,1.0168087E0,-1.2768309E-1,-1.3544067E-2,-4.056735E-2,5.999698E-1],"split_indices":[13,13,0,13,9,0,0,0,0],"split_type":[0,0,0,0,0,0,0,0,0],"sum_hessian":[1.78E3,1.773E3,7E0,1.361E3,4.12E2,3.1E2,1.051E3,2.86E2,1.26E2],"tree_param":{"num_deleted":"0","num_feature":"17","num_nodes":"9","size_leaf_vector":"1"}},{"base_weights":[4.1662216E-1,-9.505138E-2,2.0214798E1,-8.270089E-1,3.4351275E0,2.4729502E1,3.9155524E-2,-4.846576E-2,5.0547725E-1,2.8819838E-1,-7.0826477E-1,8.432382E-2,1.5252155E0],"categories":[],"categories_nodes":[],"categories_segments":[],"categories_sizes":[],"default_left":[0,0,0,0,0,0,0,0,0,0,0,0,0],"id":70,"left_children":[1,3,5,7,9,11,-1,-1,-1,-1,-1,-1,-1],"loss_changes":[1.8496904E4,4.6484688E3,3.8415898E3,2.4152925E3,1.3481867E4,4.408785E3,0E0,0E0,0E0,0E0,0E0,0E0,0E0],"parents":[2147483647,0,0,1,1,2,2,3,3,4,4,5,5],"right_children":[2,4,6,8,10,12,-1,-1,-1,-1,-1,-1,-1],"split_conditions":[1.2933333E2,4.0608696E1,1.75E2,9.5E1,1.25E2,2.9233334E0,3.9155524E-2,-4.846576E-2,5.0547725E-1,2.8819838E-1,-7.0826477E-1,8.432382E-2,1.5252155E0],"split_indices":[13,13,6,6,6,8,0,0,0,0,0,0,0],"split_type":[0,0,0,0,0,0,0,0,0,0,0,0,0],"sum_hessian":[1.814E3,1.778E3,3.6E1,1.479E3,2.99E2,2.7E1,9E0,1.469E3,1E1,2.7E2,2.9E1,8E0,1.9E1],"tree_param":{"num_deleted":"0","num_feature":"17","num_nodes":"13","size_leaf_vector":"1"}},{"base_weights":[7.761203E-2,-1.2432628E-1,1.2571369E1,-4.5783E-1,4.8422403E0,1.2597103E0,-5.579201E-1,-1.1269783E-2,-4.4624743E-1,2.2591682E-2,6.751943E-1],"categories":[],"categories_nodes":[],"categories_segments":[],"categories_sizes":[],"default_left":[0,0,0,0,0,0,0,0,0,0,0],"id":71,"left_children":[1,3,5,7,9,-1,-1,-1,-1,-1,-1],"loss_changes":[4.5999873E3,3.000276E3,1.1497984E4,3.3136675E3,4.274054E3,0E0,0E0,0E0,0E0,0E0,0E0],"parents":[2147483647,0,0,1,1,2,2,3,3,4,4],"right_children":[2,4,6,8,10,-1,-1,-1,-1,-1,-1],"split_conditions":[1.73E2,9.01E0,9.702611E1,1.3E2,1.52793045E1,1.2597103E0,-5.579201E-1,-1.1269783E-2,-4.4624743E-1,2.2591682E-2,6.751943E-1],"split_indices":[13,0,14,6,14,0,0,0,0,0,0],"split_type":[0,0,0,0,0,0,0,0,0,0,0],"sum_hessian":[1.807E3,1.788E3,1.9E1,1.684E3,1.04E2,1.2E1,7E0,1.649E3,3.5E1,7.6E1,2.8E1],"tree_param":{"num_deleted":"0","num_feature":"17","num_nodes":"11","size_leaf_vector":"1"}},{"base_weights":[7.2958434E-1,4.683444E-1,1.0672096E0,-2.7842188E-1,6.66942E0,-1.8964536E-4,-7.501282E-1,1.2758893E-1,1.0076169E0],"categories":[],"categories_nodes":[],"categories_segments":[],"categories_sizes":[],"default_left":[0,0,0,0,0,0,0,0,0],"id":72,"left_children":[1,3,-1,5,7,-1,-1,-1,-1],"loss_changes":[9.464215E3,8.1872827E3,0E0,6.404463E3,1.0033916E4,0E0,0E0,0E0,0E0],"parents":[2147483647,0,0,1,1,3,3,4,4],"right_children":[2,4,-1,6,8,-1,-1,-1,-1],"split_conditions":[1.9633333E2,5E1,1.0672096E0,1.03944695E2,7.3271286E1,-1.8964536E-4,-7.501282E-1,1.2758893E-1,1.0076169E0],"split_indices":[13,6,0,14,14,0,0,0,0],"split_type":[0,0,0,0,0,0,0,0,0],"sum_hessian":[1.766E3,1.754E3,1.2E1,1.574E3,1.8E2,1.555E3,1.9E1,1.47E2,3.3E1],"tree_param":{"num_deleted":"0","num_feature":"17","num_nodes":"9","size_leaf_vector":"1"}},{"base_weights":[6.13689E-1,1.6773398E-1,1.801548E0,-2.2639969E-1,6.879145E0,2.9772314E-1,-3.3280604E-2,-4.064137E-1,8.869361E-1],"categories":[],"categories_nodes":[],"categories_segments":[],"categories_sizes":[],"default_left":[0,0,0,0,0,0,0,0,0],"id":73,"left_children":[1,3,-1,5,7,-1,-1,-1,-1],"loss_changes":[2.794287E4,4.673825E3,0E0,4.5812935E3,1.7413426E4,0E0,0E0,0E0,0E0],"parents":[2147483647,0,0,1,1,3,3,4,4],"right_children":[2,4,-1,6,8,-1,-1,-1,-1],"split_conditions":[1.9633333E2,8.69E1,1.801548E0,3E0,5E0,2.9772314E-1,-3.3280604E-2,-4.064137E-1,8.869361E-1],"split_indices":[13,13,0,1,2,0,0,0,0],"split_type":[0,0,0,0,0,0,0,0,0],"sum_hessian":[1.763E3,1.751E3,1.2E1,1.663E3,8.8E1,1.02E2,1.561E3,3.8E1,5E1],"tree_param":{"num_deleted":"0","num_feature":"17","num_nodes":"9","size_leaf_vector":"1"}},{"base_weights":[1.7546089E-1,2.2438158E1,-2.3207293E-1,1.8241557E-1,1.6413453E0,-6.862963E-1,5.399252E0,-1.6700877E-2,-1.0319258E0,-4.3776202E-1,6.327557E-1],"categories":[],"categories_nodes":[],"categories_segments":[],"categories_sizes":[],"default_left":[0,0,0,0,0,0,0,0,0,0,0],"id":74,"left_children":[1,3,5,-1,-1,7,9,-1,-1,-1,-1],"loss_changes":[1.6655521E4,5.243705E3,4.6590957E3,0E0,0E0,1.1746172E4,1.507564E4,0E0,0E0,0E0,0E0],"parents":[2147483647,0,0,1,1,2,2,5,5,6,6],"right_children":[2,4,6,-1,-1,8,10,-1,-1,-1,-1],"split_conditions":[4E0,2.09E2,6.2E1,1.8241557E-1,1.6413453E0,1.03944695E2,6.9E2,-1.6700877E-2,-1.0319258E0,-4.3776202E-1,6.327557E-1],"split_indices":[12,15,6,0,0,14,15,0,0,0,0],"split_type":[0,0,0,0,0,0,0,0,0,0,0],"sum_hessian":[1.82E3,2.3E1,1.797E3,1.3E1,1E1,1.671E3,1.26E2,1.652E3,1.9E1,4.2E1,8.4E1],"tree_param":{"num_deleted":"0","num_feature":"17","num_nodes":"11","size_leaf_vector":"1"}},{"base_weights":[4.1095108E-1,1.2964161E1,-5.98056E-2,2.0767347E1,-3.9137387E-1,-2.5864103E-1,1.137295E1,1.2827082E0,-3.537715E-2,9.924312E-4,-6.6535157E-1,-2.1435264E-1,9.508306E-1],"categories":[],"categories_nodes":[],"categories_segments":[],"categories_sizes":[],"default_left":[0,0,0,0,0,0,0,0,0,0,0,0,0],"id":75,"left_children":[1,3,5,7,-1,9,11,-1,-1,-1,-1,-1,-1],"loss_changes":[1.0627267E4,1.21713545E4,3.9892822E3,5.428957E3,0E0,6.260249E3,4.4063916E3,0E0,0E0,0E0,0E0,0E0,0E0],"parents":[2147483647,0,0,1,1,2,2,3,3,5,5,6,6],"right_children":[2,4,6,8,-1,10,12,-1,-1,-1,-1,-1,-1],"split_conditions":[3.253796E-1,1.2185784E2,4E1,1.1163954E0,-3.9137387E-1,1.3E2,4.76E0,1.2827082E0,-3.537715E-2,9.924312E-4,-6.6535157E-1,-2.1435264E-1,9.508306E-1],"split_indices":[16,14,7,11,0,6,8,0,0,0,0,0,0],"split_type":[0,0,0,0,0,0,0,0,0,0,0,0,0],"sum_hessian":[1.787E3,5.5E1,1.732E3,4E1,1.5E1,1.712E3,2E1,3.1E1,9E0,1.686E3,2.6E1,8E0,1.2E1],"tree_param":{"num_deleted":"0","num_feature":"17","num_nodes":"13","size_leaf_vector":"1"}},{"base_weights":[2.9383934E-1,-2.0561993E-1,2.1760073E1,-6.165321E-1,6.7839527E0,2.9873806E1,-3.6334246E-1,-1.2903041E-2,-6.504378E-1,2.394153E-2,1.845732E0,1.8064219E0,1.18328236E-1],"categories":[],"categories_nodes":[],"categories_segments":[],"categories_sizes":[],"default_left":[0,0,0,0,0,0,0,0,0,0,0,0,0],"id":76,"left_children":[1,3,5,7,9,11,-1,-1,-1,-1,-1,-1,-1],"loss_changes":[1.9332953E4,5.119636E3,1.1827297E4,7.424844E3,1.8630654E4,4.9942324E3,0E0,0E0,0E0,0E0,0E0,0E0,0E0],"parents":[2147483647,0,0,1,1,2,2,3,3,4,4,5,5],"right_children":[2,4,6,8,10,12,-1,-1,-1,-1,-1,-1,-1],"split_conditions":[1.455E2,6.9E1,2.38E2,8.281153E1,1.03944695E2,7.48E2,-3.6334246E-1,-1.2903041E-2,-6.504378E-1,2.394153E-2,1.845732E0,1.8064219E0,1.18328236E-1],"split_indices":[13,6,6,14,14,15,0,0,0,0,0,0,0],"split_type":[0,0,0,0,0,0,0,0,0,0,0,0,0],"sum_hessian":[1.789E3,1.758E3,3.1E1,1.669E3,8.9E1,2.4E1,7E0,1.632E3,3.7E1,8.2E1,7E0,1.7E1,7E0],"tree_param":{"num_deleted":"0","num_feature":"17","num_nodes":"13","size_leaf_vector":"1"}},{"base_weights":[3.0548972E-1,-6.073147E-1,4.30496E0,-1.7933524E0,-6.346486E-2,5.2537103E0,-8.1823283E-1,-1.0387486E-1,2.6214242E-2,1.7422512E-2,-9.657987E-2,1.6011128E-1,1.0178143E0],"categories":[],"categories_nodes":[],"categories_segments":[],"categories_sizes":[],"default_left":[0,0,0,0,0,0,0,0,0,0,0,0,0],"id":77,"left_children":[1,3,5,7,9,11,-1,-1,-1,-1,-1,-1,-1],"loss_changes":[6.5244883E3,9.3929175E2,7.370262E3,3.1252124E2,7.839537E2,9.417288E3,0E0,0E0,0E0,0E0,0E0,0E0,0E0],"parents":[2147483647,0,0,1,1,2,2,3,3,4,4,5,5],"right_children":[2,4,6,8,10,12,-1,-1,-1,-1,-1,-1,-1],"split_conditions":[3.9416668E1,6.1767097E0,2.1708179E2,4E0,3.002388E1,1.2933333E2,-8.1823283E-1,-1.0387486E-1,2.6214242E-2,1.7422512E-2,-9.657987E-2,1.6011128E-1,1.0178143E0],"split_indices":[13,14,14,4,14,13,0,0,0,0,0,0,0],"split_type":[0,0,0,0,0,0,0,0,0,0,0,0,0],"sum_hessian":[1.77E3,1.448E3,3.22E2,4.48E2,1E3,3.15E2,7E0,4E2,4.8E1,8.26E2,1.74E2,2.88E2,2.7E1],"tree_param":{"num_deleted":"0","num_feature":"17","num_nodes":"13","size_leaf_vector":"1"}},{"base_weights":[5.329411E-1,2.5979808E-1,1.1095672E0,-5.2059203E-1,2.6560152E0,-1.7975928E-2,-4.597931E-1,-7.363981E-3,4.9714676E-1],"categories":[],"categories_nodes":[],"categories_segments":[],"categories_sizes":[],"default_left":[0,0,0,0,0,0,0,0,0],"id":78,"left_children":[1,3,-1,5,7,-1,-1,-1,-1],"loss_changes":[1.0448655E4,3.3125002E3,0E0,1.8379037E3,8.900655E3,0E0,0E0,0E0,0E0],"parents":[2147483647,0,0,1,1,3,3,4,4],"right_children":[2,4,-1,6,8,-1,-1,-1,-1],"split_conditions":[1.9633333E2,2.7E1,1.1095672E0,8.281153E1,4.9415035E1,-1.7975928E-2,-4.597931E-1,-7.363981E-3,4.9714676E-1],"split_indices":[13,6,0,14,14,0,0,0,0],"split_type":[0,0,0,0,0,0,0,0,0],"sum_hessian":[1.766E3,1.754E3,1.2E1,1.329E3,4.25E2,1.315E3,1.4E1,3.14E2,1.11E2],"tree_param":{"num_deleted":"0","num_feature":"17","num_nodes":"9","size_leaf_vector":"1"}},{"base_weights":[-1.8700379E-1,1.9842426E1,-5.7508415E-1,2.1599069E0,1.6332496E0,-4.1530623E0,-1.2558474E-1,-5.2072395E-2,2.1398155E-1,-2.3914443E-2,-6.829774E-1,4.5063996E-1,-1.9063333E-2],"categories":[],"categories_nodes":[],"categories_segments":[],"categories_sizes":[],"default_left":[0,0,0,0,0,0,0,0,0,0,0,0,0],"id":79,"left_children":[1,3,5,7,-1,9,11,-1,-1,-1,-1,-1,-1],"loss_changes":[1.39032705E4,7.003119E3,2.8092646E3,2.1425223E2,0E0,6.7466904E3,3.6909294E3,0E0,0E0,0E0,0E0,0E0,0E0],"parents":[2147483647,0,0,1,1,2,2,3,3,5,5,6,6],"right_children":[2,4,6,8,-1,10,12,-1,-1,-1,-1,-1,-1],"split_conditions":[4E0,2.09E2,5.5075705E-2,1.14E2,1.6332496E0,4.0741646E1,8.082904E-2,-5.2072395E-2,2.1398155E-1,-2.3914443E-2,-6.829774E-1,4.5063996E-1,-1.9063333E-2],"split_indices":[12,15,9,15,0,14,9,0,0,0,0,0,0],"split_type":[0,0,0,0,0,0,0,0,0,0,0,0,0],"sum_hessian":[1.764E3,2.4E1,1.74E3,1.5E1,9E0,1.85E2,1.555E3,8E0,7E0,1.41E2,4.4E1,3.3E1,1.522E3],"tree_param":{"num_deleted":"0","num_feature":"17","num_nodes":"13","size_leaf_vector":"1"}},{"base_weights":[1.6555661E-1,-4.0918207E0,5.3043604E-1,-1.8809012E0,-7.4044174E-1,-9.203667E-2,3.4583912E0,1.6078222E-1,-1.6385208E-1,-1.2857797E-2,4.8878652E-1,2.6469254E-1,-4.2005482E-1],"categories":[],"categories_nodes":[],"categories_segments":[],"categories_sizes":[],"default_left":[0,0,0,0,0,0,0,0,0,0,0,0,0],"id":80,"left_children":[1,3,5,7,-1,9,11,-1,-1,-1,-1,-1,-1],"loss_changes":[2.8131814E3,3.1096003E3,3.0359768E3,1.0303926E3,0E0,2.2768167E3,6.8008525E3,0E0,0E0,0E0,0E0,0E0,0E0],"parents":[2147483647,0,0,1,1,2,2,3,3,5,5,6,6],"right_children":[2,4,6,8,-1,10,12,-1,-1,-1,-1,-1,-1],"split_conditions":[1.4E0,4.5235294E1,4.3166668E1,8E0,-7.4044174E-1,9.5E1,1.29E2,1.6078222E-1,-1.6385208E-1,-1.2857797E-2,4.8878652E-1,2.6469254E-1,-4.2005482E-1],"split_indices":[0,13,13,7,0,6,6,0,0,0,0,0,0],"split_type":[0,0,0,0,0,0,0,0,0,0,0,0,0],"sum_hessian":[1.787E3,1.33E2,1.654E3,1.2E2,1.3E1,1.372E3,2.82E2,2.3E1,9.7E1,1.359E3,1.3E1,2.49E2,3.3E1],"tree_param":{"num_deleted":"0","num_feature":"17","num_nodes":"13","size_leaf_vector":"1"}},{"base_weights":[5.7035506E-1,1.9357592E1,1.7769293E-1,1.2361106E0,1.5163561E0,-5.6525025E0,6.414311E-1,-6.657862E-2,1.538629E-1,8.830051E-3,-1.1688737E0,5.473573E-3,6.7704076E-1],"categories":[],"categories_nodes":[],"categories_segments":[],"categories_sizes":[],"default_left":[0,0,0,0,0,0,0,0,0,0,0,0,0],"id":81,"left_children":[1,3,5,7,-1,9,11,-1,-1,-1,-1,-1,-1],"loss_changes":[1.2971123E4,6.781036E3,4.7325063E3,1.5445296E2,0E0,1.3369887E4,1.1087677E4,0E0,0E0,0E0,0E0,0E0,0E0],"parents":[2147483647,0,0,1,1,2,2,3,3,5,5,6,6],"right_children":[2,4,6,8,-1,10,12,-1,-1,-1,-1,-1,-1],"split_conditions":[4E0,1.88E2,3E0,1.08E2,1.5163561E0,7.79487E1,7.79487E1,-6.657862E-2,1.538629E-1,8.830051E-3,-1.1688737E0,5.473573E-3,6.7704076E-1],"split_indices":[12,15,1,15,0,14,14,0,0,0,0,0,0],"split_type":[0,0,0,0,0,0,0,0,0,0,0,0,0],"sum_hessian":[1.753E3,2.6E1,1.727E3,1.4E1,1.2E1,1.19E2,1.608E3,7E0,7E0,9.7E1,2.2E1,1.554E3,5.4E1],"tree_param":{"num_deleted":"0","num_feature":"17","num_nodes":"13","size_leaf_vector":"1"}},{"base_weights":[2.560988E-1,8.762849E0,-1.5914036E-1,2.2711584E1,-2.2669795E0,-4.0044165E-1,1.4107205E1,-1.4320159E-1,1.5818393E0,4.318447E-2,-2.634228E-1,-3.904383E-3,-8.9066213E-1,-3.8557615E-2,1.2531892E0],"categories":[],"categories_nodes":[],"categories_segments":[],"categories_sizes":[],"default_left":[0,0,0,0,0,0,0,0,0,0,0,0,0,0,0],"id":82,"left_children":[1,3,5,7,9,11,13,-1,-1,-1,-1,-1,-1,-1,-1],"loss_changes":[6.375768E3,1.3438652E4,6.001531E3,9.580543E3,5.717583E2,9.573062E3,4.920984E3,0E0,0E0,0E0,0E0,0E0,0E0,0E0,0E0],"parents":[2147483647,0,0,1,1,2,2,3,3,4,4,5,5,6,6],"right_children":[2,4,6,8,10,12,14,-1,-1,-1,-1,-1,-1,-1,-1],"split_conditions":[2.1877363E-1,3.726708E-1,4E1,4E0,9E0,1.81E2,1.6E1,-1.4320159E-1,1.5818393E0,4.318447E-2,-2.634228E-1,-3.904383E-3,-8.9066213E-1,-3.8557615E-2,1.2531892E0],"split_indices":[11,16,7,2,2,6,6,0,0,0,0,0,0,0,0],"split_type":[0,0,0,0,0,0,0,0,0,0,0,0,0,0,0],"sum_hessian":[1.791E3,7.4E1,1.717E3,2.8E1,4.6E1,1.698E3,1.9E1,9E0,1.9E1,2.6E1,2E1,1.677E3,2.1E1,1.2E1,7E0],"tree_param":{"num_deleted":"0","num_feature":"17","num_nodes":"15","size_leaf_vector":"1"}},{"base_weights":[5.4070014E-1,3.2747698E-1,1.1462024E0,1.679778E0,-7.9955065E-1,1.20846726E-1,-4.8785573E-1,-4.915615E-2,4.568758E-1],"categories":[],"categories_nodes":[],"categories_segments":[],"categories_sizes":[],"default_left":[0,0,0,0,0,0,0,0,0],"id":83,"left_children":[1,3,-1,5,7,-1,-1,-1,-1],"loss_changes":[8.596598E3,2.7720256E3,0E0,7.199573E3,1.9029773E3,0E0,0E0,0E0,0E0],"parents":[2147483647,0,0,1,1,3,3,4,4],"right_children":[2,4,-1,6,8,-1,-1,-1,-1],"split_conditions":[2.235E2,2.1E1,1.1462024E0,1.3E2,4.8E1,1.20846726E-1,-4.8785573E-1,-4.915615E-2,4.568758E-1],"split_indices":[13,1,0,6,6,0,0,0,0],"split_type":[0,0,0,0,0,0,0,0,0],"sum_hessian":[1.807E3,1.8E3,7E0,8.16E2,9.84E2,7.74E2,4.2E1,9.75E2,9E0],"tree_param":{"num_deleted":"0","num_feature":"17","num_nodes":"9","size_leaf_vector":"1"}},{"base_weights":[3.6927855E-1,1.3318714E-1,1.1046809E0,-3.9156267E-1,6.2960944E0,6.507666E-3,-6.7152184E-1,-5.025891E-1,6.958365E-1],"categories":[],"categories_nodes":[],"categories_segments":[],"categories_sizes":[],"default_left":[0,0,0,0,0,0,0,0,0],"id":84,"left_children":[1,3,-1,5,7,-1,-1,-1,-1],"loss_changes":[9.063944E3,5.72946E3,0E0,1.1139847E4,1.8715703E4,0E0,0E0,0E0,0E0],"parents":[2147483647,0,0,1,1,3,3,4,4],"right_children":[2,4,-1,6,8,-1,-1,-1,-1],"split_conditions":[2.235E2,6.2E1,1.1046809E0,7.3271286E1,6.9E2,6.507666E-3,-6.7152184E-1,-5.025891E-1,6.958365E-1],"split_indices":[13,6,0,14,15,0,0,0,0],"split_type":[0,0,0,0,0,0,0,0,0],"sum_hessian":[1.763E3,1.754E3,9E0,1.625E3,1.29E2,1.572E3,5.3E1,4E1,8.9E1],"tree_param":{"num_deleted":"0","num_feature":"17","num_nodes":"9","size_leaf_vector":"1"}},{"base_weights":[1.926285E-1,5.042983E0,-3.8854438E-1,-3.9931824E0,1.5102614E1,-1.5724067E-1,-1.0048029E1,8.362938E-1,-6.8581194E-1,1.1476483E0,-1.04657054E-1,2.499614E-1,-2.3098115E-2,1.10686935E-1,-7.7048486E-1],"categories":[],"categories_nodes":[],"categories_segments":[],"categories_sizes":[],"default_left":[0,0,0,0,0,0,0,0,0,0,0,0,0,0,0],"id":85,"left_children":[1,3,5,7,9,11,13,-1,-1,-1,-1,-1,-1,-1,-1],"loss_changes":[5.006265E3,1.7874281E4,3.5343604E3,2.405101E4,1.2899979E4,2.4774001E3,2.7737732E3,0E0,0E0,0E0,0E0,0E0,0E0,0E0,0E0],"parents":[2147483647,0,0,1,1,2,2,3,3,4,4,5,5,6,6],"right_children":[2,4,6,8,10,12,14,-1,-1,-1,-1,-1,-1,-1,-1],"split_conditions":[5.63204E-1,5.03E0,7.8E1,3.0366666E0,6.6E1,3E0,5E0,8.362938E-1,-6.8581194E-1,1.1476483E0,-1.04657054E-1,2.499614E-1,-2.3098115E-2,1.10686935E-1,-7.7048486E-1],"split_indices":[16,0,6,8,6,1,1,0,0,0,0,0,0,0,0],"split_type":[0,0,0,0,0,0,0,0,0,0,0,0,0,0,0],"sum_hessian":[1.759E3,1.8E2,1.579E3,9.8E1,8.2E1,1.552E3,2.7E1,2.9E1,6.9E1,5.4E1,2.8E1,7.8E1,1.474E3,1E1,1.7E1],"tree_param":{"num_deleted":"0","num_feature":"17","num_nodes":"15","size_leaf_vector":"1"}},{"base_weights":[4.2322817E-1,1.6717539E1,1.1187914E-1,-4.023267E-2,1.3974128E0,4.0704565E0,-4.8501498E-1,-2.0422177E-1,5.027599E-1,2.3332496E-1,-4.819715E-2],"categories":[],"categories_nodes":[],"categories_segments":[],"categories_sizes":[],"default_left":[0,0,0,0,0,0,0,0,0,0,0],"id":86,"left_children":[1,3,5,-1,-1,7,9,-1,-1,-1,-1],"loss_changes":[9.199166E3,6.915908E3,4.256371E3,0E0,0E0,1.1928718E4,3.911055E3,0E0,0E0,0E0,0E0],"parents":[2147483647,0,0,1,1,2,2,5,5,6,6],"right_children":[2,4,6,-1,-1,8,10,-1,-1,-1,-1],"split_conditions":[4E0,2.09E2,8.164966E-1,-4.023267E-2,1.3974128E0,5E0,4E0,-2.0422177E-1,5.027599E-1,2.3332496E-1,-4.819715E-2],"split_indices":[12,15,11,0,0,1,1,0,0,0,0],"split_type":[0,0,0,0,0,0,0,0,0,0,0],"sum_hessian":[1.807E3,2.4E1,1.783E3,1.3E1,1.1E1,2.26E2,1.557E3,9.7E1,1.29E2,1.25E2,1.432E3],"tree_param":{"num_deleted":"0","num_feature":"17","num_nodes":"11","size_leaf_vector":"1"}},{"base_weights":[-3.5816744E-1,-1.6667864E-1,-1.0059025E0,-5.967475E-1,2.1359528E1,-1.0639448E-2,-3.1753013E-1,3.5456832E-2,1.4667815E0],"categories":[],"categories_nodes":[],"categories_segments":[],"categories_sizes":[],"default_left":[0,0,0,0,0,0,0,0,0],"id":87,"left_children":[1,3,-1,5,7,-1,-1,-1,-1],"loss_changes":[6.7014224E3,1.6541246E4,0E0,3.8481763E3,5.556505E3,0E0,0E0,0E0,0E0],"parents":[2147483647,0,0,1,1,3,3,4,4],"right_children":[2,4,-1,6,8,-1,-1,-1,-1],"split_conditions":[1.8596909E2,1.2933333E2,-1.0059025E0,7.190446E1,3.44E0,-1.0639448E-2,-3.1753013E-1,3.5456832E-2,1.4667815E0],"split_indices":[14,13,0,14,0,0,0,0,0],"split_type":[0,0,0,0,0,0,0,0,0],"sum_hessian":[1.77E3,1.763E3,7E0,1.738E3,2.5E1,1.639E3,9.9E1,1E1,1.5E1],"tree_param":{"num_deleted":"0","num_feature":"17","num_nodes":"9","size_leaf_vector":"1"}},{"base_weights":[3.4195248E-2,-2.156829E-1,1.1752635E0,-9.599065E-3,-1.2274923E1,-1.0796615E-2,7.22271E-1,-7.422752E-1,-7.87974E-2],"categories":[],"categories_nodes":[],"categories_segments":[],"categories_sizes":[],"default_left":[0,0,0,0,0,0,0,0,0],"id":88,"left_children":[1,3,-1,5,7,-1,-1,-1,-1],"loss_changes":[1.057844E4,4.4372915E3,0E0,5.298235E3,5.9095557E2,0E0,0E0,0E0,0E0],"parents":[2147483647,0,0,1,1,3,3,4,4],"right_children":[2,4,-1,6,8,-1,-1,-1,-1],"split_conditions":[2.235E2,1.81E2,1.1752635E0,1.46E2,1.1525E2,-1.0796615E-2,7.22271E-1,-7.422752E-1,-7.87974E-2],"split_indices":[13,6,0,6,13,0,0,0,0],"split_type":[0,0,0,0,0,0,0,0,0],"sum_hessian":[1.785E3,1.776E3,9E0,1.756E3,2E1,1.741E3,1.5E1,1.3E1,7E0],"tree_param":{"num_deleted":"0","num_feature":"17","num_nodes":"9","size_leaf_vector":"1"}},{"base_weights":[-1.479793E-3,-1.5260497E-1,6.8642414E-1,-1.6758869E0,1.4528234E0,-5.3186025E-2,-8.5740423E-1,1.0736758E-2,1.3854133E0],"categories":[],"categories_nodes":[],"categories_segments":[],"categories_sizes":[],"default_left":[0,0,0,0,0,0,0,0,0],"id":89,"left_children":[1,3,-1,5,7,-1,-1,-1,-1],"loss_changes":[3.8117354E3,4.46786E3,0E0,8.692263E3,2.8871055E4,0E0,0E0,0E0,0E0],"parents":[2147483647,0,0,1,1,3,3,4,4],"right_children":[2,4,-1,6,8,-1,-1,-1,-1],"split_conditions":[1.9633333E2,1.0957645E0,6.8642414E-1,1.3E2,7.190446E1,-5.3186025E-2,-8.5740423E-1,1.0736758E-2,1.3854133E0],"split_indices":[13,9,0,6,14,0,0,0,0],"split_type":[0,0,0,0,0,0,0,0,0],"sum_hessian":[1.817E3,1.807E3,1E1,9.27E2,8.8E2,9.02E2,2.5E1,8.5E2,3E1],"tree_param":{"num_deleted":"0","num_feature":"17","num_nodes":"9","size_leaf_vector":"1"}},{"base_weights":[-1.3390583E-1,1.892845E-1,-6.627014E0,9.021673E0,-1.8812071E-1,-1.2775835E1,1.0075744E1,1.8562069E-3,1.9033453E0,-1.3158623E-3,-3.1174162E-1,1.5078221E-1,-8.349205E-1,1.2407961E0,-4.4823986E-1],"categories":[],"categories_nodes":[],"categories_segments":[],"categories_sizes":[],"default_left":[0,0,0,0,0,0,0,0,0,0,0,0,0,0,0],"id":90,"left_children":[1,3,5,7,9,11,13,-1,-1,-1,-1,-1,-1,-1,-1],"loss_changes":[3.8507827E3,5.8571577E3,1.0222384E4,1.8774484E4,1.6517568E3,4.7158438E3,1.0364022E4,0E0,0E0,0E0,0E0,0E0,0E0,0E0,0E0],"parents":[2147483647,0,0,1,1,2,2,3,3,4,4,5,5,6,6],"right_children":[2,4,6,8,10,12,14,-1,-1,-1,-1,-1,-1,-1,-1],"split_conditions":[9.1E1,4.0837696E-1,1.2583058E0,7E0,2.7237492E0,3E0,1.6994509E0,1.8562069E-3,1.9033453E0,-1.3158623E-3,-3.1174162E-1,1.5078221E-1,-8.349205E-1,1.2407961E0,-4.4823986E-1],"split_indices":[6,16,9,1,11,2,11,0,0,0,0,0,0,0,0],"split_type":[0,0,0,0,0,0,0,0,0,0,0,0,0,0,0],"sum_hessian":[1.819E3,1.742E3,7.7E1,6.2E1,1.68E3,5.8E1,1.9E1,5.5E1,7E0,1.646E3,3.4E1,1.2E1,4.6E1,9E0,1E1],"tree_param":{"num_deleted":"0","num_feature":"17","num_nodes":"15","size_leaf_vector":"1"}},{"base_weights":[3.9229953E-1,-8.953762E-3,9.309753E0,-4.6633E-1,7.074601E0,1.8703005E1,-1.2686665E1,-8.60037E-1,-9.130595E-3,9.306879E-1,9.8688476E-2,2.8487644E-1,1.1788923E0,1.0297882E-1,-9.1576385E-1],"categories":[],"categories_nodes":[],"categories_segments":[],"categories_sizes":[],"default_left":[0,0,0,0,0,0,0,0,0,0,0,0,0,0,0],"id":91,"left_children":[1,3,5,7,9,11,13,-1,-1,-1,-1,-1,-1,-1,-1],"loss_changes":[6.3986724E3,5.6087056E3,1.8282428E4,7.688428E3,5.812628E3,2.3335273E3,2.7844043E3,0E0,0E0,0E0,0E0,0E0,0E0,0E0,0E0],"parents":[2147483647,0,0,1,1,2,2,3,3,4,4,5,5,6,6],"right_children":[2,4,6,8,10,12,14,-1,-1,-1,-1,-1,-1,-1,-1],"split_conditions":[1.09125E2,6.3E1,1.49E2,3.75E-1,3.89E0,3.3933334E0,2.0134228E-1,-8.60037E-1,-9.130595E-3,9.306879E-1,9.8688476E-2,2.8487644E-1,1.1788923E0,1.0297882E-1,-9.1576385E-1],"split_indices":[13,6,6,16,8,8,16,0,0,0,0,0,0,0,0],"split_type":[0,0,0,0,0,0,0,0,0,0,0,0,0,0,0],"sum_hessian":[1.778E3,1.711E3,6.7E1,1.616E3,9.5E1,4.8E1,1.9E1,1.7E1,1.599E3,2.1E1,7.4E1,1.9E1,2.9E1,7E0,1.2E1],"tree_param":{"num_deleted":"0","num_feature":"17","num_nodes":"15","size_leaf_vector":"1"}},{"base_weights":[-9.59917E-2,-3.4481728E-1,1.2329816E0,-1.9457243E-1,-7.5009483E-1,-2.4120696E-2,2.9105255E-1],"categories":[],"categories_nodes":[],"categories_segments":[],"categories_sizes":[],"default_left":[0,0,0,0,0,0,0],"id":92,"left_children":[1,3,-1,5,-1,-1,-1],"loss_changes":[1.1141687E4,3.9059016E3,0E0,3.1084487E3,0E0,0E0,0E0],"parents":[2147483647,0,0,1,1,3,3],"right_children":[2,4,-1,6,-1,-1,-1],"split_conditions":[2.235E2,1.96E2,1.2329816E0,7.79487E1,-7.5009483E-1,-2.4120696E-2,2.9105255E-1],"split_indices":[13,13,0,14,0,0,0],"split_type":[0,0,0,0,0,0,0],"sum_hessian":[1.785E3,1.777E3,8E0,1.769E3,8E0,1.697E3,7.2E1],"tree_param":{"num_deleted":"0","num_feature":"17","num_nodes":"7","size_leaf_vector":"1"}},{"base_weights":[-1.4316213E-1,2.4443099E-1,-5.05563E0,3.7463694E0,-1.0943547E-1,-1.0473308E1,3.5687404E0,3.903679E-1,-2.3409179E-1,1.5592155E-2,-8.533154E-2,-8.01557E-1,3.8445048E-2,9.1963667E-1,-3.8499948E-1],"categories":[],"categories_nodes":[],"categories_segments":[],"categories_sizes":[],"default_left":[0,0,0,0,0,0,0,0,0,0,0,0,0,0,0],"id":93,"left_children":[1,3,5,7,9,11,13,-1,-1,-1,-1,-1,-1,-1,-1],"loss_changes":[3.411115E3,2.0661958E3,6.4946855E3,5.6022656E3,1.0287623E3,5.309448E3,1.1105105E4,0E0,0E0,0E0,0E0,0E0,0E0,0E0,0E0],"parents":[2147483647,0,0,1,1,2,2,3,3,4,4,5,5,6,6],"right_children":[2,4,6,8,10,12,14,-1,-1,-1,-1,-1,-1,-1,-1],"split_conditions":[7.190446E1,6.617647E-1,6.230837E-1,7.2E1,8.571428E0,6E0,7.68E2,3.903679E-1,-2.3409179E-1,1.5592155E-2,-8.533154E-2,-8.01557E-1,3.8445048E-2,9.1963667E-1,-3.8499948E-1],"split_indices":[14,16,9,6,16,1,15,0,0,0,0,0,0,0,0],"split_type":[0,0,0,0,0,0,0,0,0,0,0,0,0,0,0],"sum_hessian":[1.775E3,1.654E3,1.21E2,1.43E2,1.511E3,7.3E1,